24 100
5 -0.001666913041844964 0.008853637613356113 -0.001916346256621182 0.007177812047302723 0.021304646506905556 -0.004851188510656357 -0.008384914137423038 -0.01900153048336506 -0.024648170918226242 0.02565918304026127 0.017032617703080177 0.022502247244119644 -0.021253366023302078 -0.021975429728627205 0.004564829170703888 0.023999981582164764 0.014346255920827389 -0.0071656182408332825 0.03360862657427788 0.011883286759257317 -0.0031421163585036993 0.007758686784654856 0.022021740674972534 -0.030158940702676773 0.006632480304688215 -0.0026137433014810085 0.012471308000385761 -0.012746450491249561 0.002428957959637046 0.008716623298823833 0.003613643581047654 -0.0049255830235779285 -0.029897451400756836 0.021496804431080818 -0.0026376049499958754 0.02337624877691269 0.02538437955081463 -0.008155782707035542 0.00540080526843667 -0.023089494556188583 0.02119557000696659 0.0000726425860193558 -0.00004888280454906635 -0.0070939501747488976 -0.0016981535591185093 0.01655716262757778 -0.016410889104008675 0.014719641767442226 0.007205434143543243 -0.00010991679300786927 0.000744188844691962 -0.017019616439938545 -0.00772758387029171 0.001881892909295857 0.00041281909216195345 -0.010267912410199642 0.0039023624267429113 0.010615457780659199 0.0009706960408948362 -0.015294218435883522 0.006989290472120047 -0.007424012292176485 0.017903177067637444 0.018922021612524986 -0.01986953616142273 0.02165708690881729 0.01855582557618618 0.005337720736861229 0.04964955523610115 0.022096388041973114 0.01837841607630253 0.010684174485504627 0.013087236322462559 -0.02559763193130493 -0.0067303916439414024 0.015888353809714317 -0.012591847218573093 0.02498580329120159 -0.008908286690711975 0.00942790787667036 0.01726703532040119 0.003360248636454344 0.01079560536891222 0.00169697729870677 0.0022841866593807936 0.020563190802931786 0.004239330068230629 0.0019810206722468138 0.0217254888266325 -0.0032360334880650043 0.03250214084982872 0.01747443899512291 0.025129765272140503 0.006607969757169485 0.02434825524687767 0.010225660167634487 -0.014223890379071236 0.02054896578192711 0.007776516955345869 -0.01994900591671467
9 0.01702066883444786 -0.02160993404686451 0.04984908923506737 -0.0034216521307826042 -0.006492027081549168 -0.0396733321249485 0.037677716463804245 -0.003356958506628871 -0.02193445712327957 0.015682552009820938 0.01315403264015913 -0.004854705650359392 -0.014771155081689358 0.013783733360469341 -0.021005893126130104 0.019255410879850388 0.01386361662298441 -0.003611142048612237 0.038850169628858566 0.044261932373046875 0.03157231584191322 0.009730773977935314 0.0016155471093952656 -0.009355278685688972 0.01631324365735054 -0.005230364389717579 0.020564021542668343 0.03605244681239128 -0.013518977910280228 0.007165248971432447 -0.015810182318091393 0.01529859658330679 -0.03144102171063423 -0.04568776860833168 -0.008223060518503189 -0.021782394498586655 -0.03330351039767265 -0.03207959607243538 0.016846273094415665 -0.014127681963145733 -0.029323210939764977 -0.008298131637275219 -0.020514287054538727 0.0004972840542905033 0.04130489006638527 0.014438808895647526 -0.022468673065304756 -0.024026231840252876 0.03804268687963486 -0.013483339920639992 -0.0037478420417755842 -0.011228952556848526 -0.007732153870165348 -0.0067003145813941956 -0.015356436371803284 0.0011908769374713302 0.005836883559823036 -0.03960608318448067 0.02551746927201748 -0.06646285951137543 -0.014548158273100853 0.010491113178431988 -0.011969562619924545 -0.05319366604089737 0.03736916556954384 -0.0005005439161323011 0.03531157225370407 0.0006703863618895411 0.012129115872085094 -0.0005904515855945647 -0.017989275977015495 -0.007342960219830275 -0.03877471014857292 -0.027193773537874222 -0.022724108770489693 -0.04991202428936958 -0.020600872114300728 -0.0035092581529170275 -0.058223918080329895 -0.046509310603141785 0.01205572672188282 0.024110836908221245 -0.0346098355948925 -0.028756888583302498 0.026219356805086136 0.006857879925519228 -0.04340065270662308 -0.04359675198793411 0.04583315551280975 -0.04410993680357933 -0.0017475244821980596 0.008720943704247475 -0.021184619516134262 -0.00441632280126214 0.002496805740520358 -0.010452874936163425 0.009487352333962917 0.03252847120165825 -0.02341567911207676 0.014534506015479565
12 -0.007408054545521736 -0.015390947461128235 0.05930707976222038 -0.005319215822964907 0.04168720915913582 -0.02406880259513855 -0.009603030979633331 -0.010413195937871933 -0.02764631249010563 0.07311373949050903 -0.006661482620984316 -0.013907257467508316 -0.02043057605624199 0.00857818964868784 -0.006007730960845947 0.026879291981458664 0.07478716969490051 0.012651313096284866 0.004875273443758488 0.029672907665371895 0.058896422386169434 -0.012825638987123966 0.023107657209038734 -0.017890235409140587 -0.012162487953901291 0.014533419162034988 0.022905485704541206 0.0007963203242979944 0.028302660211920738 0.04962655529379845 -0.011807803064584732 0.001647964701987803 -0.02687947265803814 -0.039023879915475845 0.01269634161144495 -0.01869218237698078 -0.019893232733011246 -0.04416413977742195 0.014930822886526585 -0.0245658028870821 -0.0313982293009758 -0.022462086752057076 -0.005771001800894737 -0.0024194074794650078 0.04601803794503212 0.031319957226514816 0.0362243726849556 -0.03540770336985588 -0.016502220183610916 -0.005508780479431152 -0.021921776235103607 0.03222723305225372 -0.004825199488550425 -0.039482492953538895 0.023502562195062637 -0.05845475196838379 0.01888001710176468 -0.0176188163459301 0.010313303209841251 0.0010178295196965337 0.03538842871785164 -0.015525111928582191 -0.0431361049413681 -0.05813464894890785 0.004249989986419678 0.002143041929230094 0.0310520026832819 -0.030515052378177643 -0.005642200820147991 0.0013455144362524152 0.018258197233080864 -0.011393081396818161 0.03453308343887329 -0.021573718637228012 0.023026246577501297 -0.037289246916770935 -0.002597247948870063 0.04287414997816086 -0.016584714874625206 0.011326877400279045 0.0023133051581680775 0.01750071905553341 0.011611560359597206 0.006007636897265911 0.007929109036922455 0.000628309731837362 -0.02523369900882244 0.011081565171480179 0.01833561807870865 0.019560281187295914 0.008938505314290524 0.004832759499549866 -0.012684384360909462 -0.011464857496321201 0.013137580826878548 -0.03785854950547218 -0.024871688336133957 0.008631064556539059 0.0012678045313805342 -0.04064524546265602
13 -0.00032761020702309906 -0.003035390516743064 0.0031653158366680145 -0.017592046409845352 0.0008563925512135029 -0.0004645360168069601 0.002063615247607231 0.011019253171980381 -0.003915383014827967 0.01540431473404169 0.0016065119998529553 0.011554867960512638 -0.007058507762849331 0.007839145138859749 0.010433354414999485 0.011958455666899681 0.0005255427095107734 0.012528762221336365 0.005883774720132351 -0.005160228814929724 -0.025707071647047997 0.007712080609053373 -0.002081440296024084 -0.019133975729346275 -0.0043800221756100655 -0.009160834364593029 -0.021222632378339767 0.005714787170290947 0.034068915992975235 0.007229573093354702 0.01031391229480505 -0.011394152417778969 -0.009820125997066498 0.010836045257747173 0.003327950369566679 -0.010678202845156193 0.021678375080227852 0.007326212711632252 0.014292309060692787 0.011852319352328777 -0.00012166707892902195 0.00848416332155466 -0.02722230553627014 -0.01913803070783615 0.01986287534236908 0.005702909082174301 0.0028824727050960064 -0.007742321118712425 -0.030638601630926132 0.004408187698572874 0.00047535731573589146 -0.005585573147982359 0.0027947742491960526 -0.004589919000864029 0.0008031263132579625 -0.001663264469243586 0.02272447757422924 -0.014941955916583538 -0.002519669709727168 -0.006383304949849844 0.00015881714352872223 -0.011871760711073875 -0.013480161316692829 -0.010887718759477139 -0.015042795799672604 0.0186002254486084 -0.003721643704921007 -0.016036104410886765 0.006326854228973389 0.016257520765066147 0.00041882466757670045 0.0004517995985224843 0.010381802916526794 0.004946623928844929 -0.03765121102333069 -0.009379222057759762 -0.011571391485631466 -0.020446449518203735 -0.015747258439660072 -0.022273428738117218 -0.003148817690089345 0.010139907710254192 0.001027389313094318 -0.012969883158802986 -0.007289899978786707 0.01191785465925932 0.004273507744073868 -0.012840703129768372 0.0034750003833323717 0.005649738945066929 -0.016153480857610703 -0.0018973199184983969 -0.007518087979406118 0.008003637194633484 0.011753733269870281 0.021710416302084923 0.018388215452432632 0.011071224696934223 0.01526417676359415 0.00796603411436081
14 0.00246740086004138 -0.041877057403326035 0.029221734032034874 -0.023355403915047646 -0.006312674842774868 0.0029549342580139637 -0.01863759756088257 -0.011345951817929745 -0.02156652882695198 0.019051220268011093 0.0015647376421838999 0.022133678197860718 -0.020055260509252548 0.012006388045847416 0.037478022277355194 0.023320376873016357 0.0037667378783226013 0.01409091241657734 0.004628029651939869 0.04690482094883919 -0.03053954243659973 -0.0045077805407345295 0.012758582830429077 0.006582411006093025 -0.03742966800928116 -0.024540672078728676 -0.02496388554573059 0.017392167821526527 -0.006059521809220314 0.001768849790096283 0.015409384854137897 0.01882374845445156 -0.00756610743701458 0.02682056836783886 0.010447712615132332 0.011746574193239212 -0.009087621234357357 0.0026855827309191227 0.012396610341966152 0.007142345421016216 -0.012885074131190777 0.022742152214050293 -0.010687893256545067 -0.014935344457626343 0.000986497732810676 0.00905020721256733 -0.03916345164179802 0.02514581009745598 0.015998588874936104 -0.018689019605517387 0.04199343919754028 -0.022796686738729477 -0.009845167398452759 -0.012996828183531761 -0.009323245845735073 0.039904169738292694 0.01962159015238285 -0.00245845434255898 -0.03223534673452377 -0.020738448947668076 0.025843314826488495 -0.022078514099121094 0.025457588955760002 -0.0011444403789937496 0.00031103508081287146 -0.013818600215017796 -0.003167180810123682 -0.004897835198789835 0.007443373091518879 0.005294801667332649 0.007840155623853207 -0.013515402562916279 -0.012979577295482159 -0.000017252106772502884 0.0009911850793287158 0.002257933607324958 -0.04990410432219505 0.020364344120025635 -0.01128112431615591 0.0056126732379198074 0.02500401996076107 0.002935802796855569 0.022960461676120758 0.0009858625708147883 -0.00831318274140358 0.010609770193696022 0.007455677725374699 0.00660750363022089 0.033582303673028946 0.02631334401667118 -0.029560260474681854 0.01186985895037651 0.014402898028492928 0.02632279321551323 0.028244009241461754 -0.008396901190280914 0.031179506331682205 0.01645846478641033 0.00957354623824358 -0.005374873988330364
-1 -0.016483813524246216 -0.04268612712621689 -0.0210947934538126 0.020425865426659584 -0.03125356137752533 0.007096339948475361 0.05318060517311096 0.024302322417497635 0.05876535177230835 -0.009733321145176888 -0.02022576332092285 0.07190630584955215 -0.02053278312087059 -0.05033052712678909 -0.002185328397899866 0.006720062345266342 0.03910849243402481 0.028426462784409523 -0.024264376610517502 0.001961843576282263 0.00317098805680871 0.0533575713634491 0.005209521856158972 -0.034667640924453735 -0.043220292776823044 -0.023935433477163315 0.016137514263391495 -0.03727903217077255 -0.04182962700724602 -0.000904533255379647 -0.07074730843305588 0.014609922654926777 0.02245810441672802 0.06489642709493637 -0.0005318165058270097 0.0277527067810297 0.03217379003763199 -0.026855427771806717 -0.03430555760860443 -0.00871221162378788 -0.010029192082583904 0.046079233288764954 0.003250622656196356 0.00802631489932537 -0.004216283559799194 0.03944171592593193 0.041507288813591 0.024871591478586197 -0.007181739900261164 -0.06610152870416641 -0.02808273211121559 0.011749576777219772 0.06132769584655762 -0.0030450597405433655 0.03187661990523338 -0.023710574954748154 -0.009809201583266258 0.016000822186470032 -0.015073733404278755 -0.03464188426733017 0.03306109458208084 -0.004444139078259468 0.014358249492943287 -0.0016742676962167025 0.01222851313650608 0.06001324579119682 -0.0327613465487957 -0.03342646360397339 0.015259997919201851 -0.013586086221039295 -0.06802687793970108 -0.034139931201934814 0.006341187749058008 -0.0008147105691023171 0.04724308103322983 0.020077425986528397 -0.008854566141963005 0.014583626762032509 -0.0031884429045021534 -0.08789005130529404 0.015189970843493938 -0.00942992977797985 -0.006536500994116068 0.02219044789671898 0.07505977898836136 0.030667060986161232 0.012729336507618427 -0.041571445763111115 0.04094182699918747 -0.0417984239757061 -0.03231954574584961 -0.016298508271574974 -0.015135002322494984 0.03445509448647499 -0.04549470171332359 -0.0031516272574663162 -0.011622052639722824 0.029563406482338905 -0.03553513437509537 0.02215692773461342
-2 -0.05634424090385437 -0.1587301790714264 0.053750842809677124 0.07069674879312515 0.07584801316261292 0.07435593008995056 -0.042133837938308716 -0.1359580159187317 -0.0802532434463501 -0.03222208470106125 -0.034993115812540054 0.05321795493364334 0.10259909927845001 0.037799667567014694 -0.14132244884967804 0.13311593234539032 -0.08053745329380035 -0.17635108530521393 -0.13350671529769897 0.0426667295396328 0.17514319717884064 0.01925509423017502 -0.05037587136030197 0.16491170227527618 -0.012860412709414959 -0.013748563826084137 0.15798413753509521 -0.09414390474557877 -0.017336688935756683 -0.11442925781011581 -0.08018218725919724 -0.17382872104644775 0.1672564297914505 -0.03296813368797302 0.17329584062099457 -0.1352119743824005 -0.07524407655000687 -0.1412869095802307 0.16896167397499084 0.049452196806669235 0.1488894820213318 -0.011936737224459648 -0.043164096772670746 0.1415000706911087 0.04589959606528282 0.16079069674015045 0.03094314970076084 -0.008952552452683449 -0.023482689633965492 -0.08387689292430878 -0.09169261902570724 -0.10771484673023224 0.03517074137926102 -0.05201006680727005 -0.09460575133562088 -0.12704098224639893 0.049771931022405624 -0.02675108052790165 0.07211779057979584 0.04966535419225693 -0.06295207887887955 0.152868390083313 -0.1632775217294693 -0.08277559280395508 0.057800810784101486 0.026182666420936584 0.13737906515598297 0.12515811622142792 0.15112760663032532 -0.06824544817209244 -0.13059359788894653 -0.009343339130282402 0.044975921511650085 -0.058262646198272705 0.14853422343730927 -0.014423557557165623 0.011368321254849434 -0.13808958232402802 0.04774694889783859 -0.04000227898359299 0.055775824934244156 -0.05801396444439888 0.14995525777339935 -0.14707764983177185 -0.08259795606136322 0.16533802449703217 0.06099814921617508 0.047285109758377075 0.13457250595092773 -0.10640037804841995 -0.16917482018470764 -0.05076666176319122 -0.08639923483133316 -0.0016697222599759698 -0.0465390644967556 0.11933184415102005 -0.02945105731487274 0.018722204491496086 -0.053964000195264816 0.1412869095802307
-3 0.08947017788887024 -0.04051338508725166 0.062208883464336395 0.12139703333377838 0.12734666466712952 0.005816727876663208 -0.027290968224406242 -0.01796443574130535 0.015905093401670456 0.03382446989417076 -0.07231783121824265 -0.07775624841451645 -0.011356271803379059 -0.0026887431740760803 0.015818750485777855 0.10951465368270874 0.0022960156202316284 -0.08734647929668427 0.07458575069904327 -0.09984440356492996 0.11430984735488892 0.07930260896682739 0.016677940264344215 -0.010318147018551826 0.09266464412212372 -0.001648399978876114 0.02522662654519081 0.09277254343032837 0.0011679697781801224 -0.04983484372496605 0.019307047128677368 0.01215151697397232 -0.021032843738794327 -0.02344963327050209 0.0060196127742528915 0.016040664166212082 0.058007754385471344 -0.1701371669769287 -0.1019226461648941 -0.11196058243513107 0.044494688510894775 -0.10238700360059738 0.04822678118944168 -0.11000824719667435 -0.023210827261209488 -0.061551760882139206 0.03625797852873802 -0.0057450272142887115 -0.0060174427926540375 -0.01847708225250244 -0.14345304667949677 -0.06537121534347534 -0.02883516252040863 -0.03846518695354462 -0.043772391974925995 0.041878752410411835 0.04106641188263893 -0.08605296909809113 -0.003318656235933304 0.017975248396396637 0.08513949811458588 -0.050511762499809265 0.05394585430622101 0.05580804869532585 0.06010058894753456 0.09724236279726028 -0.021805698052048683 0.02070995420217514 0.010671857744455338 0.12232591211795807 0.021443085744976997 -0.09594804048538208 -0.08729010820388794 0.04740715026855469 0.027483655139803886 -0.03225027769804001 -0.025806313380599022 -0.004025615751743317 -0.09729672223329544 0.001728421077132225 -0.005071835592389107 -0.015577703714370728 -0.163441002368927 -0.09052278846502304 0.0196550153195858 -0.03984510898590088 0.09375771880149841 0.02172517590224743 0.011452950537204742 -0.05406966432929039 0.15341031551361084 0.06589283794164658 0.008701438084244728 -0.11717693507671356 -0.0654444769024849 0.014390945434570312 -0.019141629338264465 -0.017687346786260605 -0.0339914932847023 -0.047023385763168335
8f6a2f85-7729-4288-a7c1-a9bc821f043d -0.09745587408542633 0.07609470188617706 -0.10907147079706192 -0.07253450155258179 -0.15503036975860596 0.12766359746456146 0.01542751770466566 -0.041859276592731476 0.11928456276655197 -0.14773017168045044 -0.07602277398109436 0.0017980788834393024 -0.1679765284061432 0.04218292981386185 0.026719452813267708 0.17642751336097717 -0.02222425490617752 0.14114919304847717 0.10454031080007553 -0.02923676371574402 -0.1570442169904709 0.04239870235323906 0.02815791592001915 0.042146969586610794 -0.11734262853860855 0.08868125081062317 0.11791801452636719 0.05912083387374878 -0.07728143036365509 -0.006545007228851318 0.06473083794116974 0.13963881134986877 -0.12115456163883209 -0.08037412911653519 0.009098279289901257 0.13201496005058289 0.11626377701759338 0.12011167407035828 -0.178225576877594 -0.025532720610499382 0.011291936039924622 -0.14125707745552063 -0.1770028918981552 0.05462563782930374 0.10892762243747711 -0.07213892042636871 0.06343622505664825 0.13097207248210907 -0.034666962921619415 0.1307922601699829 -0.03578177094459534 0.051712751388549805 -0.05433794483542442 0.0011507704621180892 0.11543666571378708 0.11468147486448288 0.14553649723529816 -0.11834955215454102 0.11809782683849335 -0.011651551350951195 0.031070804223418236 -0.15456286072731018 0.022763678804039955 0.15035535395145416 -0.12237725406885147 0.05538082867860794 -0.03006388060748577 0.08936452120542526 0.05041813105344772 0.045131780207157135 -0.1696307510137558 0.10317377001047134 -0.07422469556331635 0.15743978321552277 -0.07566315680742264 -0.13974669575691223 0.04869197681546211 0.10576300323009491 -0.05721487104892731 -0.16175517439842224 -0.024669641628861427 0.05300736799836159 0.026215991005301476 -0.11457359045743942 0.07088027149438858 -0.10756108164787292 0.0453835092484951 -0.06005583703517914 0.0712398812174797 -0.03315657377243042 -0.039054274559020996 0.029955994337797165 0.1618630588054657 -0.01039289589971304 -0.17653538286685944 -0.0861639454960823 -0.10115992277860641 0.12367187440395355 0.1330578327178955 0.15905806422233582
9bec6a76-0423-4ed1-8cf5-6303ff2221ef 0.007490320131182671 -0.10337406396865845 0.0438336618244648 -0.016318198293447495 -0.1458701640367508 0.03091667778789997 -0.13994669914245605 0.14651983976364136 0.011655854992568493 -0.15240509808063507 0.025986826047301292 0.018611153587698936 0.008292854763567448 -0.09798561781644821 -0.07345099747180939 -0.1790797859430313 -0.14992104470729828 0.08071202039718628 0.18874843418598175 -0.13004878163337708 0.0206748116761446 -0.016394630074501038 0.0064584906212985516 -0.18664655089378357 -0.047234877943992615 0.07047015428543091 -0.18443003296852112 0.158672496676445 -0.06103082746267319 0.132379949092865 0.14755167067050934 -0.019604766741394997 -0.01471312902867794 0.05579524487257004 0.10073716938495636 -0.022853121161460876 -0.18897773325443268 -0.17716899514198303 0.015515663661062717 0.17877408862113953 -0.004585910122841597 -0.10669884830713272 -0.054457686841487885 -0.05357871949672699 0.066724993288517 0.058202844113111496 0.04016492888331413 -0.11694071441888809 0.03091667778789997 -0.17812439799308777 0.1620355099439621 -0.07689043134450912 -0.010509378276765347 -0.0692090317606926 -0.11277517676353455 0.09641876071691513 0.13956454396247864 0.08036807924509048 0.03370644152164459 0.14617589116096497 0.00932468380779028 0.061642277985811234 -0.013452003709971905 -0.08885201066732407 -0.013031628914177418 0.14330969750881195 -0.009515764191746712 0.09003670513629913 0.17395886778831482 -0.0747121199965477 0.0037451600655913353 -0.05166792497038841 0.00305727357044816 -0.13264745473861694 0.08010056614875793 -0.0063820588402450085 0.14900386333465576 0.14273646473884583 -0.013375570997595787 0.06462311744689941 -0.14655806124210358 -0.12641826272010803 -0.03183386102318764 0.09573087841272354 -0.017770402133464813 0.1884809136390686 -0.017044300213456154 0.11674963682889938 -0.0319485105574131 0.018611153587698936 0.0846482664346695 -0.12909337878227234 0.10356514155864716 -0.0807502418756485 0.040470659732818604 -0.03863629698753357 0.012534821406006813 0.1591693013906479 0.09515764564275742 -0.0598079152405262
0d6a766f-c6f8-4989-9481-db4a1746abe0 0.07124669849872589 -0.0355149582028389 0.16312313079833984 -0.0071897017769515514 0.06102214381098747 -0.030637523159384727 0.05076146125793457 -0.02612137794494629 0.15279018878936768 0.06915120035409927 -0.013259399682283401 -0.015065857209265232 0.08118221163749695 -0.11438489705324173 -0.06842861324548721 0.054193731397390366 0.0325162373483181 -0.14657597243785858 -0.06402085721492767 -0.06109439581632614 -0.07789444923400879 0.13635143637657166 0.1411927342414856 -0.15199536085128784 0.11687780916690826 -0.09552548825740814 0.05600019171833992 0.0806402713060379 -0.009754871018230915 -0.13653206825256348 0.0022038782481104136 -0.057553742080926895 0.08978094905614853 0.08674609661102295 0.030637523159384727 -0.08674609661102295 -0.03052913397550583 0.015391020104289055 -0.07890607416629791 -0.15932956337928772 -0.0036851735785603523 -0.09650097042322159 -0.09491128474473953 0.02391749992966652 -0.09505580365657806 0.09538096934556961 -0.056975677609443665 0.12988430261611938 -0.11832298338413239 -0.05816793814301491 0.0857706069946289 -0.08418092876672745 -0.15813730657100677 -0.032118819653987885 0.11312038451433182 -0.04808790236711502 0.15235665440559387 0.06622473895549774 -0.10470228642225266 0.176057368516922 -0.17468445003032684 -0.14130112528800964 0.1152881309390068 -0.10607519745826721 0.13085979223251343 0.14126498997211456 0.10137840360403061 -0.05339888855814934 -0.09949968755245209 -0.006286473013460636 -0.00531098572537303 -0.17959801852703094 -0.1375798135995865 0.031396232545375824 0.026627186685800552 0.17580445110797882 0.11257844418287277 -0.12392299622297287 0.15773989260196686 -0.04284917563199997 0.11474619060754776 -0.03753818944096565 0.07746090739965439 0.00560001889243722 0.1454559713602066 0.09292418509721756 -0.07298088818788528 0.16872315108776093 -0.15091146528720856 0.16026891767978668 -0.062178272753953934 0.02312265709042549 0.04422208294272423 0.14747920632362366 0.07030733674764633 -0.04169304668903351 -0.16673605144023895 0.12804171442985535 0.01405424065887928 0.09285192936658859
3c8e0aa7-ff42-4550-acbf-8da30db8dc1c 0.15573062002658844 -0.03828294202685356 -0.15276527404785156 -0.14183680713176727 0.03015323169529438 0.13247430324554443 0.04134824499487877 0.13970442116260529 -0.11071733385324478 0.13567286729812622 0.1290758103132248 -0.014426905661821365 0.07153479009866714 -0.12764312326908112 -0.009362494572997093 0.004897817503660917 -0.0010328730568289757 -0.0066636973060667515 -0.07719893008470535 -0.10955118387937546 -0.1565302461385727 -0.10008873790502548 -0.027554389089345932 0.08479554951190948 -0.13990433514118195 0.07619937509298325 -0.063471719622612 0.11418245732784271 0.05404258519411087 0.09012651443481445 0.02845398709177971 -0.07866495102643967 -0.1525653600692749 -0.07393372058868408 -0.12134592980146408 -0.1345067322254181 0.078465037047863 -0.015093274414539337 -0.13287413120269775 0.055941738188266754 0.0026987974997609854 0.08439572900533676 0.12401140481233597 0.018924901261925697 -0.04154815152287483 0.12567733228206635 -0.1367390751838684 0.03041977994143963 0.03428472578525543 0.09305853396654129 0.047911982983350754 0.11641479283571243 0.06880266964435577 0.054275814443826675 0.05850726366043091 0.05307634919881821 -0.016092829406261444 0.1602952480316162 0.02518877573311329 0.03301861882209778 0.11798076331615448 -0.02099064737558365 0.161361426115036 -0.0010661915875971317 -0.10685238987207413 0.16116151213645935 0.09745657444000244 -0.023089710623025894 0.14763422310352325 0.1080518513917923 -0.11971332132816315 0.07626601308584213 0.13690565526485443 -0.02932026982307434 -0.02678806334733963 0.15639697015285492 -0.13380703330039978 -0.01669256202876568 -0.07673247903585434 0.16009533405303955 0.09042637050151825 0.13034191727638245 0.02725452184677124 0.11334949731826782 -0.018225211650133133 0.14620152115821838 -0.0011994655942544341 0.12547741830348969 0.12850940227508545 -0.15123261511325836 -0.03191911056637764 0.055941738188266754 -0.13044187426567078 0.13860490918159485 0.14853382110595703 -0.15249872207641602 -0.04031537100672722 0.0005997327971272171 -0.16269417107105255 -0.1407039612531662
29382caa-8d04-4d02-a755-e9f8e3732061 0.07124669849872589 -0.0355149582028389 0.16312313079833984 -0.0071897017769515514 0.06102214381098747 -0.030637523159384727 0.05076146125793457 -0.02612137794494629 0.15279018878936768 0.06915120035409927 -0.013259399682283401 -0.015065857209265232 0.08118221163749695 -0.11438489705324173 -0.06842861324548721 0.054193731397390366 0.0325162373483181 -0.14657597243785858 -0.06402085721492767 -0.06109439581632614 -0.07789444923400879 0.13635143637657166 0.1411927342414856 -0.15199536085128784 0.11687780916690826 -0.09552548825740814 0.05600019171833992 0.0806402713060379 -0.009754871018230915 -0.13653206825256348 0.0022038782481104136 -0.057553742080926895 0.08978094905614853 0.08674609661102295 0.030637523159384727 -0.08674609661102295 -0.03052913397550583 0.015391020104289055 -0.07890607416629791 -0.15932956337928772 -0.0036851735785603523 -0.09650097042322159 -0.09491128474473953 0.02391749992966652 -0.09505580365657806 0.09538096934556961 -0.056975677609443665 0.12988430261611938 -0.11832298338413239 -0.05816793814301491 0.0857706069946289 -0.08418092876672745 -0.15813730657100677 -0.032118819653987885 0.11312038451433182 -0.04808790236711502 0.15235665440559387 0.06622473895549774 -0.10470228642225266 0.176057368516922 -0.17468445003032684 -0.14130112528800964 0.1152881309390068 -0.10607519745826721 0.13085979223251343 0.14126498997211456 0.10137840360403061 -0.05339888855814934 -0.09949968755245209 -0.006286473013460636 -0.00531098572537303 -0.17959801852703094 -0.1375798135995865 0.031396232545375824 0.026627186685800552 0.17580445110797882 0.11257844418287277 -0.12392299622297287 0.15773989260196686 -0.04284917563199997 0.11474619060754776 -0.03753818944096565 0.07746090739965439 0.00560001889243722 0.1454559713602066 0.09292418509721756 -0.07298088818788528 0.16872315108776093 -0.15091146528720856 0.16026891767978668 -0.062178272753953934 0.02312265709042549 0.04422208294272423 0.14747920632362366 0.07030733674764633 -0.04169304668903351 -0.16673605144023895 0.12804171442985535 0.01405424065887928 0.09285192936658859
5df4ca48-cf61-4a65-8ec1-35dad495c2bf 0.07124669849872589 -0.0355149582028389 0.16312313079833984 -0.0071897017769515514 0.06102214381098747 -0.030637523159384727 0.05076146125793457 -0.02612137794494629 0.15279018878936768 0.06915120035409927 -0.013259399682283401 -0.015065857209265232 0.08118221163749695 -0.11438489705324173 -0.06842861324548721 0.054193731397390366 0.0325162373483181 -0.14657597243785858 -0.06402085721492767 -0.06109439581632614 -0.07789444923400879 0.13635143637657166 0.1411927342414856 -0.15199536085128784 0.11687780916690826 -0.09552548825740814 0.05600019171833992 0.0806402713060379 -0.009754871018230915 -0.13653206825256348 0.0022038782481104136 -0.057553742080926895 0.08978094905614853 0.08674609661102295 0.030637523159384727 -0.08674609661102295 -0.03052913397550583 0.015391020104289055 -0.07890607416629791 -0.15932956337928772 -0.0036851735785603523 -0.09650097042322159 -0.09491128474473953 0.02391749992966652 -0.09505580365657806 0.09538096934556961 -0.056975677609443665 0.12988430261611938 -0.11832298338413239 -0.05816793814301491 0.0857706069946289 -0.08418092876672745 -0.15813730657100677 -0.032118819653987885 0.11312038451433182 -0.04808790236711502 0.15235665440559387 0.06622473895549774 -0.10470228642225266 0.176057368516922 -0.17468445003032684 -0.14130112528800964 0.1152881309390068 -0.10607519745826721 0.13085979223251343 0.14126498997211456 0.10137840360403061 -0.05339888855814934 -0.09949968755245209 -0.006286473013460636 -0.00531098572537303 -0.17959801852703094 -0.1375798135995865 0.031396232545375824 0.026627186685800552 0.17580445110797882 0.11257844418287277 -0.12392299622297287 0.15773989260196686 -0.04284917563199997 0.11474619060754776 -0.03753818944096565 0.07746090739965439 0.00560001889243722 0.1454559713602066 0.09292418509721756 -0.07298088818788528 0.16872315108776093 -0.15091146528720856 0.16026891767978668 -0.062178272753953934 0.02312265709042549 0.04422208294272423 0.14747920632362366 0.07030733674764633 -0.04169304668903351 -0.16673605144023895 0.12804171442985535 0.01405424065887928 0.09285192936658859
a9a1580f-6c78-4553-8348-1f6711b5c430 0.07124669849872589 -0.0355149582028389 0.16312313079833984 -0.0071897017769515514 0.06102214381098747 -0.030637523159384727 0.05076146125793457 -0.02612137794494629 0.15279018878936768 0.06915120035409927 -0.013259399682283401 -0.015065857209265232 0.08118221163749695 -0.11438489705324173 -0.06842861324548721 0.054193731397390366 0.0325162373483181 -0.14657597243785858 -0.06402085721492767 -0.06109439581632614 -0.07789444923400879 0.13635143637657166 0.1411927342414856 -0.15199536085128784 0.11687780916690826 -0.09552548825740814 0.05600019171833992 0.0806402713060379 -0.009754871018230915 -0.13653206825256348 0.0022038782481104136 -0.057553742080926895 0.08978094905614853 0.08674609661102295 0.030637523159384727 -0.08674609661102295 -0.03052913397550583 0.015391020104289055 -0.07890607416629791 -0.15932956337928772 -0.0036851735785603523 -0.09650097042322159 -0.09491128474473953 0.02391749992966652 -0.09505580365657806 0.09538096934556961 -0.056975677609443665 0.12988430261611938 -0.11832298338413239 -0.05816793814301491 0.0857706069946289 -0.08418092876672745 -0.15813730657100677 -0.032118819653987885 0.11312038451433182 -0.04808790236711502 0.15235665440559387 0.06622473895549774 -0.10470228642225266 0.176057368516922 -0.17468445003032684 -0.14130112528800964 0.1152881309390068 -0.10607519745826721 0.13085979223251343 0.14126498997211456 0.10137840360403061 -0.05339888855814934 -0.09949968755245209 -0.006286473013460636 -0.00531098572537303 -0.17959801852703094 -0.1375798135995865 0.031396232545375824 0.026627186685800552 0.17580445110797882 0.11257844418287277 -0.12392299622297287 0.15773989260196686 -0.04284917563199997 0.11474619060754776 -0.03753818944096565 0.07746090739965439 0.00560001889243722 0.1454559713602066 0.09292418509721756 -0.07298088818788528 0.16872315108776093 -0.15091146528720856 0.16026891767978668 -0.062178272753953934 0.02312265709042549 0.04422208294272423 0.14747920632362366 0.07030733674764633 -0.04169304668903351 -0.16673605144023895 0.12804171442985535 0.01405424065887928 0.09285192936658859
ef67b500-6ce0-4e74-b3e3-7adbb51b4aaa -0.0752793550491333 -0.12240047752857208 -0.06878568232059479 -0.06761360913515091 0.008804290555417538 0.1447777897119522 0.06777572631835938 0.03384789079427719 0.029050864279270172 0.028419172391295433 0.0492001436650753 0.07852102071046829 -0.0857839584350586 -0.06267833709716797 -0.07787994295358658 0.00382184237241745 0.015832260251045227 0.03388700261712074 -0.004115507937967777 -0.08765504509210587 -0.021804140880703926 0.11187397688627243 0.06823607534170151 -0.07673736661672592 -0.011730039492249489 0.0026558954268693924 0.008229216560721397 0.07026976346969604 0.058206211775541306 0.024326564744114876 0.032311152666807175 0.033821459859609604 0.013056281954050064 -0.004094008356332779 0.02691732905805111 0.08548790216445923 0.030361145734786987 -0.025413822382688522 -0.04521452635526657 0.011076916940510273 0.040237464010715485 0.04500996693968773 0.02055169641971588 0.002619041595607996 -0.0505889430642128 0.011158592998981476 -0.057330865412950516 0.001613476313650608 0.028631875291466713 0.020671837031841278 0.018825257197022438 -0.046314090490341187 0.013067405670881271 -0.011683684773743153 -0.03739842772483826 -0.046999938786029816 0.008484017103910446 -0.020025204867124557 0.07914566993713379 -0.12079121172428131 0.01474264170974493 0.05579179525375366 -0.01965978369116783 0.0008137878030538559 0.037976302206516266 0.0375603549182415 -0.02764851227402687 -0.08108352869749069 -0.0015907809138298035 -0.0028174370527267456 -0.05868029221892357 0.01520448550581932 -0.015803653746843338 -0.09431753307580948 -0.07411441206932068 -0.04420078918337822 0.002237096428871155 0.011895827017724514 -0.022959670051932335 0.029301505535840988 -0.01860247366130352 -0.044819511473178864 -0.019529037177562714 0.011694194748997688 0.07560358196496964 -0.016486184671521187 0.05286306142807007 0.09808339178562164 0.05549463629722595 -0.016864487901329994 -0.08783426135778427 -0.03336428105831146 -0.08885988593101501 0.028725260868668556 -0.13686500489711761 0.08084230124950409 0.0007742814486846328 0.026945509016513824 -0.05877886340022087 -0.043845660984516144
e18bae36-f2a7-428c-9f6b-f37d98404786 0.054323289543390274 -0.05822645127773285 0.024004915729165077 0.020978296175599098 -0.01767064817249775 -0.017688758671283722 0.029324281960725784 -0.028034616261720657 0.019961539655923843 -0.029536617919802666 0.0593092106282711 -0.004343574400991201 0.0139654241502285 -0.08962208032608032 0.012748446315526962 0.04911009222269058 0.10213129222393036 -0.02182828262448311 -0.03831130266189575 0.006083010695874691 -0.06244061142206192 0.09370729327201843 0.06328330934047699 -0.09044289588928223 -0.011203776113688946 0.003925463184714317 0.037010811269283295 0.0016160495579242706 -0.055513765662908554 -0.020510271191596985 -0.045435674488544464 0.05512475222349167 -0.00325731560587883 0.01663937233388424 -0.02416345849633217 -0.05323173850774765 0.0018288185819983482 -0.050624433904886246 -0.0006925119087100029 -0.008859377354383469 0.07760921120643616 0.04438391700387001 -0.0008436292409896851 -0.03146500885486603 -0.01990494877099991 0.05695067346096039 0.053167905658483505 0.02482869103550911 0.010576178319752216 0.05912395566701889 -0.027017179876565933 0.031057685613632202 -0.07455554604530334 -0.01766214519739151 -0.0864223837852478 0.026384731754660606 0.01573219895362854 0.006664179265499115 0.1164267286658287 -0.014472031965851784 -0.03758939728140831 0.13251712918281555 0.04484861344099045 0.03661474213004112 -0.036992814391851425 0.020599741488695145 0.03723664581775665 -0.021172989159822464 -0.12762151658535004 0.02585741877555847 -0.015418832190334797 0.028975602239370346 0.06725016236305237 -0.02941802516579628 -0.04515036195516586 0.05552494898438454 -0.037814974784851074 -0.04275527596473694 -0.06011095270514488 0.028053291141986847 0.030508719384670258 -0.010377399623394012 0.0050617968663573265 -0.014204800128936768 0.10519024729728699 -0.016098903492093086 0.04216071963310242 0.08114312589168549 0.06206990033388138 -0.053201861679553986 0.043855227530002594 -0.0025879014283418655 -0.08913549780845642 0.052852608263492584 -0.006963919848203659 0.053849540650844574 0.03372963145375252 -0.03592630848288536 -0.044669754803180695 -0.04809614270925522
46f703d1-7b5d-4bbf-b5d9-b4928b40de68 0.020403705537319183 -0.04916337504982948 -0.031072011217474937 -0.03449369594454765 -0.00060147640760988 0.04560524970293045 -0.05635776370763779 -0.0744103193283081 -0.1039537638425827 -0.033628977835178375 -0.03329763561487198 0.047975312918424606 -0.017353523522615433 -0.06668934971094131 -0.008854307234287262 0.10455965995788574 -0.01322837732732296 -0.018315419554710388 0.015528055839240551 0.04564817622303963 0.0039443401619791985 0.025464361533522606 -0.06823635846376419 0.032444752752780914 -0.012974676676094532 -0.0732145681977272 0.004588889889419079 -0.025918880477547646 0.015580086037516594 0.05787893384695053 -0.05393822118639946 -0.003908947110176086 0.01613253355026245 -0.04278937727212906 -0.016258442774415016 -0.01997038908302784 0.00849956925958395 -0.03598933666944504 0.005367056000977755 0.0075555467046797276 0.032321177423000336 0.011764643713831902 0.06543008238077164 0.003346021519973874 0.015113746747374535 0.04137115925550461 -0.052703000605106354 0.006644253619015217 0.0272306390106678 -0.04648138955235481 0.015622703358530998 -0.024730660021305084 0.01971622183918953 0.08214076608419418 -0.04402618110179901 -0.003477632999420166 0.029468778520822525 0.010431364178657532 0.022237736731767654 -0.020005088299512863 -0.01480120699852705 0.02977551519870758 -0.06849156320095062 -0.08072603493928909 0.02362183667719364 -0.03006342425942421 -0.019584883004426956 0.031231265515089035 0.03246075659990311 -0.04328956827521324 -0.013449874706566334 -0.007275818381458521 -0.016392629593610764 -0.008179130032658577 0.006207290105521679 -0.01126437820494175 0.06637877225875854 -0.054250866174697876 0.10169108957052231 -0.05373790115118027 0.014607490971684456 -0.06500852853059769 0.01089191623032093 -0.06042085960507393 -0.012102636508643627 0.07769458740949631 0.03623387962579727 0.0027957200072705746 0.027472298592329025 -0.046741146594285965 -0.044620878994464874 -0.04184718057513237 -0.02326059713959694 -0.06299253553152084 0.04488474875688553 -0.04785061627626419 -0.013776866719126701 -0.01125062070786953 -0.10695521533489227 -0.014821147546172142
a95334e2-3599-4300-b3d6-a316db5ef0cc 0.04201933741569519 -0.059474047273397446 0.11901548504829407 0.03969429433345795 -0.03514528647065163 -0.16265225410461426 -0.16073155403137207 -0.056407682597637177 -0.0006739268428646028 -0.14074961841106415 -0.08525174856185913 0.03797577694058418 0.14799433946609497 -0.09340626001358032 -0.1132534071803093 -0.07056014984846115 0.16939151287078857 -0.03659423068165779 0.057014212012290955 -0.021329784765839577 -0.10742394626140594 0.09825854003429413 0.13795283436775208 -0.03932363539934158 -0.08373541384935379 0.12555257976055145 -0.08039947599172592 0.07419934868812561 -0.08956488221883774 -0.05259999260306358 -0.04420960322022438 -0.08218538016080856 -0.03885188698768616 -0.11524149030447006 -0.1229916587471962 -0.14159202575683594 -0.09249646216630936 0.003133760066702962 0.06277628988027573 0.005930556450039148 0.009367583319544792 0.12316013127565384 -0.027967965230345726 -0.1183752566576004 -0.07022318243980408 0.14290618896484375 0.15911413729190826 0.10108903050422668 0.09903355687856674 0.042625874280929565 -0.0902051106095314 0.017993846908211708 0.014826390892267227 -0.10540216416120529 -0.05017385631799698 0.07628852128982544 -0.0628436803817749 -0.14745518565177917 0.07325585186481476 0.13727889955043793 -0.13040484488010406 0.1517346352338791 0.15463250875473022 0.14236705005168915 -0.09714656323194504 0.10017923265695572 0.1603945940732956 0.11753284931182861 -0.1278776228427887 0.10765982419252396 0.13832348585128784 -0.16248376667499542 0.03895297273993492 -0.013040484860539436 -0.11770132929086685 -0.16811105608940125 0.0674600824713707 -0.023553745821118355 -0.0552620030939579 0.04346828535199165 0.05081408470869064 0.05940665677189827 -0.04613029211759567 0.16137178242206573 0.159013032913208 -0.032786544412374496 -0.046804219484329224 -0.03743663802742958 -0.021498268470168114 -0.14694975316524506 0.07723201811313629 -0.028102749958634377 -0.14991503953933716 -0.04451287165284157 -0.1321907490491867 0.13758216798305511 -0.13451580703258514 -0.08275822550058365 -0.03908775746822357 0.14668017625808716
9fb2211f-9061-45c8-bc9e-06a923296765 -0.025968218222260475 0.015516579151153564 -0.03911621496081352 -0.10959812998771667 0.04506281390786171 0.05279470607638359 -0.10644935071468353 -0.039985813200473785 0.04813249781727791 0.05662979558110237 -0.05910240486264229 0.08562692254781723 0.005818992853164673 0.14839482307434082 0.010402100160717964 -0.09073366969823837 0.08152784407138824 -0.0007600747048854828 -0.055843550711870193 0.010962855070829391 -0.038944993168115616 0.08100958168506622 0.0001632142812013626 -0.1253291815519333 -0.03412345051765442 0.05807802081108093 0.013631574809551239 0.07355953752994537 -0.04632803052663803 -0.11320143938064575 -0.09421539306640625 0.07099444419145584 -0.10457338392734528 0.10430186986923218 0.027308903634548187 -0.04782756045460701 0.012966975569725037 -0.0408642403781414 0.11385062336921692 0.025768134742975235 -0.07317797094583511 -0.004690095782279968 0.014415409415960312 0.0402456670999527 0.030615225434303284 -0.009480461478233337 -0.019925376400351524 -0.0325176902115345 -0.07569412887096405 -0.026648085564374924 0.017905835062265396 0.04395035654306412 0.02215578407049179 0.044490765780210495 0.0559561550617218 0.0834372490644455 -0.055374786257743835 0.06074289232492447 -0.07049376517534256 -0.0006061717867851257 0.05795631185173988 -0.03527852147817612 0.05457833781838417 0.09358133375644684 0.003249049186706543 -0.05003530904650688 -0.056604109704494476 -0.05733165889978409 0.002329944632947445 -0.02027728036046028 0.0051543936133384705 0.033971041440963745 0.005629822611808777 0.04821804165840149 0.10254740715026855 0.10224781930446625 0.063179612159729 0.12558259069919586 -0.035655178129673004 -0.0455777570605278 -0.0327291339635849 0.04795043542981148 0.11997652798891068 0.005645304918289185 -0.06021905690431595 0.1084749698638916 0.1400882750749588 0.05599457770586014 -0.05514944717288017 -0.01476377621293068 0.024928126484155655 0.018870018422603607 0.018766388297080994 0.1431831568479538 0.05301744490861893 -0.12009311467409134 -0.03240276873111725 0.08858372271060944 0.05277435854077339 0.04051327705383301
b4993a07-b194-4ab3-976b-8bad3c3b4422 -0.020742788910865784 0.061653848737478256 -0.008656205609440804 -0.009049120359122753 -0.001331465900875628 0.05078721046447754 0.03242536634206772 -0.029360458254814148 0.007788263261318207 -0.0255607720464468 0.04467712342739105 0.05518726631999016 -0.0558667816221714 -0.05275477468967438 0.011526063084602356 -0.044080108404159546 0.053199466317892075 0.05400801822543144 -0.059678126126527786 0.019253164529800415 -0.019700655713677406 -0.04707876965403557 -0.028093231841921806 0.0032971103210002184 -0.024894824251532555 0.002818708075210452 -0.06046099588274956 0.03559449315071106 -0.02153325080871582 -0.014756008051335812 -0.0021336053032428026 0.037808503955602646 -0.11022568494081497 -0.07278407365083694 0.030917471274733543 -0.023766929283738136 -0.017064962536096573 0.04141470044851303 -0.029524000361561775 0.047373175621032715 -0.002560016931965947 0.028913497924804688 -0.01935926266014576 -0.05973832681775093 0.03319772332906723 -0.05798627436161041 -0.014127424918115139 -0.03453493118286133 0.05716307833790779 0.021495938301086426 0.04808231070637703 -0.08309445530176163 0.005156134720891714 -0.008012699894607067 -0.023877443745732307 -0.0033499945420771837 -0.05025634542107582 0.05403520539402962 -0.00040430575609207153 0.05347178503870964 0.04919897019863129 0.029141897335648537 -0.018657607957720757 0.01579558104276657 0.04637868329882622 0.0017994046211242676 -0.017466524615883827 -0.04730096459388733 0.04364438354969025 -0.026197830215096474 -0.012528127990663052 0.011873054318130016 0.06138374283909798 -0.035874564200639725 -0.008594167418777943 -0.015756774693727493 0.031114136800169945 0.03317150101065636 -0.020676476880908012 0.02383234165608883 -0.026499589905142784 -0.018345234915614128 -0.045064542442560196 0.028082573786377907 -0.007186358328908682 0.08895877748727798 0.002605825662612915 0.043346285820007324 -0.0023451836314052343 0.04111533984541893 0.019673792645335197 0.012126185931265354 -0.025752708315849304 -0.045764774084091187 -0.016265662387013435 -0.011927574872970581 0.00247123627923429 0.0187419094145298 0.011110869236290455 -0.0204901285469532
3c2e1d18-ee43-4cfe-b860-daa72d2f9d9b -0.0015670289285480976 -0.08148550242185593 0.06759592890739441 0.018946802243590355 -0.053029682487249374 -0.136153444647789 0.06293045729398727 -0.011895174160599709 -0.0429152213037014 -0.06944786757230759 -0.06659872829914093 0.059155337512493134 -0.14373928308486938 -0.1651790887117386 0.08522500842809677 -0.0071584731340408325 -0.08287446200847626 0.09423541277647018 -0.05473916605114937 -0.004986001178622246 0.1453063040971756 -0.10930027067661285 0.09779684990644455 0.004523015581071377 -0.07689125835895538 -0.08016777038574219 0.1477280855178833 0.049147725105285645 0.14641036093235016 -0.10214179009199142 0.14516384899616241 -0.11036869883537292 0.01948101818561554 -0.013853959739208221 -0.12696495652198792 0.08796729892492294 -0.09598051756620407 0.07895688712596893 -0.08433464914560318 -0.12927988171577454 -0.10534707456827164 0.15955203771591187 -0.12205018103122711 -0.02204524725675583 0.1750086396932602 -0.05577198415994644 0.16610506176948547 0.17037878930568695 -0.05067913979291916 -0.04957509785890579 -0.14915266633033752 -0.05837182700634003 -0.06456871330738068 0.07243946939706802 -0.12739232182502747 -0.05719655379652977 -0.12821145355701447 -0.06257431209087372 -0.16371889412403107 -0.15449480712413788 -0.05794445797801018 -0.026140891015529633 0.14811983704566956 0.12283369153738022 0.06278800219297409 -0.012999217957258224 -0.12123105674982071 -0.08782484382390976 -0.11667242646217346 -0.12885251641273499 -0.03130496293306351 -0.1353699266910553 -0.14552000164985657 -0.03433217853307724 0.022793147712945938 0.008013215847313404 0.15987256169319153 -0.013177288696169853 0.09117259085178375 0.10306776314973831 0.0037395006511360407 0.09598051756620407 -0.04323575273156166 -0.0004629858012776822 0.10392250865697861 -0.16877613961696625 -0.15225110948085785 -0.007657072972506285 -0.15723709762096405 -0.11179326474666595 0.08130742609500885 0.10933588445186615 0.11613820493221283 -0.01691678911447525 -0.004736700560897589 0.11115220934152603 0.12835390865802765 -0.07888565957546234 0.08483324199914932 -0.15235795080661774
16c342a0-c9b2-4b88-b7a2-c52e15618492 -0.10542906075716019 -0.043319862335920334 -0.12281572818756104 -0.027629461139440536 -0.14969491958618164 0.056009192019701004 0.010829965583980083 0.1368424892425537 0.15295696258544922 -0.03421877697110176 -0.12787188589572906 0.13472215831279755 0.07365681231021881 0.16003558039665222 -0.085334911942482 0.15455536544322968 -0.05627015233039856 -0.11045259982347488 0.021268488839268684 0.1403328776359558 -0.15024946630001068 0.11756384372711182 0.15618638694286346 0.11749860644340515 -0.03999258577823639 -0.0682092159986496 0.03914445638656616 -0.13312377035617828 -0.12823070585727692 0.1324061155319214 0.12372910231351852 -0.09668680280447006 -0.08360603451728821 -0.029782406985759735 -0.03346851095557213 -0.15553396940231323 -0.14571522176265717 0.0822686031460762 -0.14189864695072174 0.042080290615558624 -0.14630240201950073 -0.11749860644340515 -0.15572969615459442 -0.04925677180290222 -0.16189493238925934 -0.15517514944076538 0.05245357006788254 0.08526967465877533 0.13883233070373535 -0.1275130659341812 0.03924231603741646 0.06341401487588882 -0.13605959713459015 -0.04984394088387489 0.0951862707734108 -0.08941245824098587 0.16019867360591888 0.1441168338060379 -0.06008674204349518 0.06008674204349518 -0.027401117607951164 -0.05026800557971001 0.027042295783758163 0.048082441091537476 -0.04139526188373566 -0.07740815728902817 -0.08680283278226852 0.14470399916172028 -0.12131518870592117 0.04739741235971451 -0.11117025464773178 0.04925677180290222 -0.09900285303592682 0.06422953307628632 -0.00013048152322880924 -0.1312970370054245 -0.05088779330253601 0.12085850536823273 0.047527894377708435 0.11792267113924026 0.028118766844272614 0.12049967795610428 -0.08546539396047592 0.08840122818946838 -0.10151462256908417 0.04778885468840599 -0.1085280030965805 0.131818950176239 0.054606515914201736 -0.03095673955976963 0.024171700701117516 0.029032139107584953 0.09381621330976486 0.03206583485007286 0.11384512484073639 -0.03138080611824989 0.02120324596762657 0.1400066763162613 0.043319862335920334 -0.10552692413330078
928a23aa-3dbf-4b4d-89e0-a2c9aed3537b -0.0569378137588501 -0.09962217509746552 -0.021655619144439697 0.037960585206747055 -0.044508811086416245 -0.09499546885490417 -0.04070395976305008 -0.07789978384971619 0.10090634226799011 -0.07107917219400406 -0.08063895255327225 -0.0880110114812851 -0.07613611966371536 0.06677743792533875 -0.04795723780989647 -0.019414305686950684 0.056737348437309265 0.02584805153310299 -0.11250901222229004 0.041305020451545715 0.049077488481998444 0.06968052685260773 -0.011963337659835815 0.062142033129930496 0.026619676500558853 0.06448840349912643 0.08882507681846619 -0.048497479408979416 0.045552827417850494 -0.04905669763684273 -0.05445001274347305 0.030108129605650902 0.052777357399463654 0.09200826287269592 -0.10992858558893204 0.027561476454138756 0.1094592958688736 -0.07829868048429489 -0.14311569929122925 -0.0682636946439743 0.0035601817071437836 -0.02816852554678917 0.008987348526716232 0.142825186252594 -0.04483146592974663 0.029158717021346092 -0.06187849119305611 0.14203092455863953 0.09506641328334808 0.0988912433385849 -0.013896949589252472 -0.0032516606152057648 -0.037253014743328094 -0.02724921703338623 0.06756660342216492 0.032643429934978485 0.0317278653383255 -0.001250353641808033 -0.14629527926445007 -0.015719469636678696 0.0004932582378387451 -0.0363849401473999 -0.06032121181488037 -0.011482950299978256 0.019686540588736534 -0.11745578795671463 0.0017290376126766205 -0.04117916524410248 -0.05326921120285988 -0.124920554459095 -0.055518295615911484 -0.12692436575889587 0.1011664867401123 -0.03862130269408226 0.1247037798166275 -0.03242860734462738 0.017575222998857498 -0.0817696824669838 -0.04972700774669647 0.07127775996923447 -0.009444281458854675 -0.055320605635643005 0.1008664071559906 0.06770795583724976 -0.10248890519142151 -0.023580610752105713 -0.0006875433027744293 -0.05521310493350029 -0.1159435585141182 0.033592842519283295 -0.027506913989782333 -0.051273003220558167 -0.013498056679964066 0.07686877250671387 -0.04006849601864815 0.052503425627946854 -0.0022484883666038513 -0.05248004198074341 -0.04431988671422005 -0.004393517971038818
