5 100
5 -0.0655159205198288 0.02476654015481472 -0.014824692159891129 0.05365055426955223 0.05751832202076912 0.04343368113040924 -0.038835346698760986 -0.011250508949160576 -0.073672354221344 0.06136659160256386 0.05657552182674408 0.035392213612794876 -0.042637743055820465 -0.07865852117538452 -0.00738067552447319 0.08592680841684341 0.1210085079073906 0.03885901719331741 0.056157927960157394 0.027797415852546692 -0.023480882868170738 0.04254508763551712 0.08537324517965317 -0.011890234425663948 0.06794917583465576 0.020126376301050186 -0.0007862262427806854 0.012040941044688225 -0.009268857538700104 0.016822978854179382 0.03133179619908333 -0.0272560752928257 -0.015335669741034508 0.038972463458776474 -0.07069088518619537 -0.012330333702266216 0.014656653627753258 0.02405722811818123 0.019292162731289864 -0.07907591760158539 -0.007137347012758255 -0.015157919377088547 0.03381900489330292 0.06676457822322845 0.11648214608430862 -0.0009889565408229828 0.034606076776981354 -0.006642516702413559 -0.016076648607850075 -0.04883752018213272 -0.045206330716609955 -0.014121847227215767 -0.02546781301498413 0.030111163854599 0.031630199402570724 -0.08920299261808395 0.04647039622068405 -0.01519806683063507 -0.02587447501718998 0.004987115040421486 -0.004526262171566486 -0.03566582873463631 -0.03785846009850502 0.07560911774635315 0.015971370041370392 -0.05136099085211754 0.1086692288517952 0.01228289119899273 0.09603585302829742 0.04538731276988983 0.03245900571346283 0.051969338208436966 0.06433022022247314 0.02216685190796852 0.025747159495949745 -0.05116332322359085 -0.04281080141663551 0.052721958607435226 -0.07049182802438736 -0.05107685178518295 0.06215497851371765 0.09305106103420258 -0.013437080197036266 0.047502823173999786 0.09609799087047577 0.11517701297998428 -0.023229053243994713 -0.06228552758693695 0.04928388074040413 0.01947689801454544 -0.0034565413370728493 0.03259401023387909 -0.0804903656244278 -0.04745166376233101 0.11498462408781052 0.005370602011680603 -0.05277017131447792 -0.03072301112115383 -0.0824517011642456 -0.036960892379283905
9 -0.0655159205198288 0.02476654015481472 -0.014824692159891129 0.05365055426955223 0.05751832202076912 0.04343368113040924 -0.038835346698760986 -0.011250508949160576 -0.073672354221344 0.06136659160256386 0.05657552182674408 0.035392213612794876 -0.042637743055820465 -0.07865852117538452 -0.00738067552447319 0.08592680841684341 0.1210085079073906 0.03885901719331741 0.056157927960157394 0.027797415852546692 -0.023480882868170738 0.04254508763551712 0.08537324517965317 -0.011890234425663948 0.06794917583465576 0.020126376301050186 -0.0007862262427806854 0.012040941044688225 -0.009268857538700104 0.016822978854179382 0.03133179619908333 -0.0272560752928257 -0.015335669741034508 0.038972463458776474 -0.07069088518619537 -0.012330333702266216 0.014656653627753258 0.02405722811818123 0.019292162731289864 -0.07907591760158539 -0.007137347012758255 -0.015157919377088547 0.03381900489330292 0.06676457822322845 0.11648214608430862 -0.0009889565408229828 0.034606076776981354 -0.006642516702413559 -0.016076648607850075 -0.04883752018213272 -0.045206330716609955 -0.014121847227215767 -0.02546781301498413 0.030111163854599 0.031630199402570724 -0.08920299261808395 0.04647039622068405 -0.01519806683063507 -0.02587447501718998 0.004987115040421486 -0.004526262171566486 -0.03566582873463631 -0.03785846009850502 0.07560911774635315 0.015971370041370392 -0.05136099085211754 0.1086692288517952 0.01228289119899273 0.09603585302829742 0.04538731276988983 0.03245900571346283 0.051969338208436966 0.06433022022247314 0.02216685190796852 0.025747159495949745 -0.05116332322359085 -0.04281080141663551 0.052721958607435226 -0.07049182802438736 -0.05107685178518295 0.06215497851371765 0.09305106103420258 -0.013437080197036266 0.047502823173999786 0.09609799087047577 0.11517701297998428 -0.023229053243994713 -0.06228552758693695 0.04928388074040413 0.01947689801454544 -0.0034565413370728493 0.03259401023387909 -0.0804903656244278 -0.04745166376233101 0.11498462408781052 0.005370602011680603 -0.05277017131447792 -0.03072301112115383 -0.0824517011642456 -0.036960892379283905
12 -0.03941052407026291 0.0064233168959617615 -0.007364068180322647 0.03470323234796524 0.02316659688949585 0.03924409672617912 -0.030125319957733154 -0.011194061487913132 -0.08596792072057724 0.054565705358982086 0.09432683140039444 -0.02749023586511612 -0.05635396018624306 -0.08563502877950668 0.024552084505558014 0.05536102131009102 0.16290178894996643 0.07186633348464966 0.021926723420619965 0.053149767220020294 0.011029329150915146 0.03407128155231476 0.09986554086208344 0.03254342079162598 0.058142468333244324 0.0928039699792862 -0.005321502685546875 -0.017543219029903412 -0.08345509320497513 0.09836839139461517 0.06889350712299347 -0.03339086472988129 -0.0166540015488863 -0.006576036103069782 -0.11428718268871307 -0.0290164016187191 0.049716122448444366 -0.02257874608039856 -0.02509075030684471 -0.10792902857065201 -0.012352718971669674 -0.015739645808935165 0.07863858342170715 0.06491641700267792 0.10759960114955902 0.05194108188152313 0.031379081308841705 0.03110405057668686 -0.06170283257961273 -0.05867554247379303 -0.07565198838710785 -0.04158404842019081 -0.03670859336853027 0.027796631678938866 0.1113644391298294 -0.09227462112903595 0.05457372963428497 -0.09504389762878418 -0.011648334562778473 0.04388386011123657 0.00043505430221557617 -0.0546887181699276 -0.08800879120826721 0.0844627246260643 0.027738861739635468 -0.08446738123893738 0.1436939537525177 0.015446244738996029 0.09791958332061768 0.020866014063358307 -0.0013163387775421143 0.07950547337532043 0.08291642367839813 0.025068391114473343 0.08165556192398071 -0.08067608624696732 -0.05297432094812393 0.12462519109249115 -0.11326530575752258 -0.055147841572761536 0.08151089400053024 0.09205440431833267 0.02151336707174778 0.14205744862556458 0.1074010580778122 0.12678898870944977 -0.02859102562069893 -0.10892858356237411 0.07265834510326385 -0.0016017630696296692 0.0065576620399951935 0.037470221519470215 -0.06423269212245941 -0.10247881710529327 0.1258031576871872 -0.035683415830135345 -0.07640855014324188 -0.05126236006617546 -0.09597829729318619 -0.007914800196886063
13 -0.0655159205198288 0.02476654015481472 -0.014824692159891129 0.05365055426955223 0.05751832202076912 0.04343368113040924 -0.038835346698760986 -0.011250508949160576 -0.073672354221344 0.06136659160256386 0.05657552182674408 0.035392213612794876 -0.042637743055820465 -0.07865852117538452 -0.00738067552447319 0.08592680841684341 0.1210085079073906 0.03885901719331741 0.056157927960157394 0.027797415852546692 -0.023480882868170738 0.04254508763551712 0.08537324517965317 -0.011890234425663948 0.06794917583465576 0.020126376301050186 -0.0007862262427806854 0.012040941044688225 -0.009268857538700104 0.016822978854179382 0.03133179619908333 -0.0272560752928257 -0.015335669741034508 0.038972463458776474 -0.07069088518619537 -0.012330333702266216 0.014656653627753258 0.02405722811818123 0.019292162731289864 -0.07907591760158539 -0.007137347012758255 -0.015157919377088547 0.03381900489330292 0.06676457822322845 0.11648214608430862 -0.0009889565408229828 0.034606076776981354 -0.006642516702413559 -0.016076648607850075 -0.04883752018213272 -0.045206330716609955 -0.014121847227215767 -0.02546781301498413 0.030111163854599 0.031630199402570724 -0.08920299261808395 0.04647039622068405 -0.01519806683063507 -0.02587447501718998 0.004987115040421486 -0.004526262171566486 -0.03566582873463631 -0.03785846009850502 0.07560911774635315 0.015971370041370392 -0.05136099085211754 0.1086692288517952 0.01228289119899273 0.09603585302829742 0.04538731276988983 0.03245900571346283 0.051969338208436966 0.06433022022247314 0.02216685190796852 0.025747159495949745 -0.05116332322359085 -0.04281080141663551 0.052721958607435226 -0.07049182802438736 -0.05107685178518295 0.06215497851371765 0.09305106103420258 -0.013437080197036266 0.047502823173999786 0.09609799087047577 0.11517701297998428 -0.023229053243994713 -0.06228552758693695 0.04928388074040413 0.01947689801454544 -0.0034565413370728493 0.03259401023387909 -0.0804903656244278 -0.04745166376233101 0.11498462408781052 0.005370602011680603 -0.05277017131447792 -0.03072301112115383 -0.0824517011642456 -0.036960892379283905
14 -0.0655159205198288 0.02476654015481472 -0.014824692159891129 0.05365055426955223 0.05751832202076912 0.04343368113040924 -0.038835346698760986 -0.011250508949160576 -0.073672354221344 0.06136659160256386 0.05657552182674408 0.035392213612794876 -0.042637743055820465 -0.07865852117538452 -0.00738067552447319 0.08592680841684341 0.1210085079073906 0.03885901719331741 0.056157927960157394 0.027797415852546692 -0.023480882868170738 0.04254508763551712 0.08537324517965317 -0.011890234425663948 0.06794917583465576 0.020126376301050186 -0.0007862262427806854 0.012040941044688225 -0.009268857538700104 0.016822978854179382 0.03133179619908333 -0.0272560752928257 -0.015335669741034508 0.038972463458776474 -0.07069088518619537 -0.012330333702266216 0.014656653627753258 0.02405722811818123 0.019292162731289864 -0.07907591760158539 -0.007137347012758255 -0.015157919377088547 0.03381900489330292 0.06676457822322845 0.11648214608430862 -0.0009889565408229828 0.034606076776981354 -0.006642516702413559 -0.016076648607850075 -0.04883752018213272 -0.045206330716609955 -0.014121847227215767 -0.02546781301498413 0.030111163854599 0.031630199402570724 -0.08920299261808395 0.04647039622068405 -0.01519806683063507 -0.02587447501718998 0.004987115040421486 -0.004526262171566486 -0.03566582873463631 -0.03785846009850502 0.07560911774635315 0.015971370041370392 -0.05136099085211754 0.1086692288517952 0.01228289119899273 0.09603585302829742 0.04538731276988983 0.03245900571346283 0.051969338208436966 0.06433022022247314 0.02216685190796852 0.025747159495949745 -0.05116332322359085 -0.04281080141663551 0.052721958607435226 -0.07049182802438736 -0.05107685178518295 0.06215497851371765 0.09305106103420258 -0.013437080197036266 0.047502823173999786 0.09609799087047577 0.11517701297998428 -0.023229053243994713 -0.06228552758693695 0.04928388074040413 0.01947689801454544 -0.0034565413370728493 0.03259401023387909 -0.0804903656244278 -0.04745166376233101 0.11498462408781052 0.005370602011680603 -0.05277017131447792 -0.03072301112115383 -0.0824517011642456 -0.036960892379283905
