5 100
5 -0.06284241378307343 -0.01929868757724762 0.02300337329506874 0.05578070133924484 0.039241768419742584 0.014964696951210499 -0.03161299228668213 -0.032686520367860794 -0.08177783340215683 0.046179354190826416 0.0634930431842804 0.03650753200054169 -0.03266514465212822 -0.04017573595046997 -0.03427336364984512 0.12030811607837677 0.06252306699752808 -0.008208878338336945 0.09248890727758408 0.023713992908596992 -0.05672961473464966 0.058302294462919235 0.07461820542812347 -0.020198896527290344 0.06360143423080444 -0.03930352255702019 0.021788451820611954 0.028701474890112877 0.001633001142181456 -0.01766752451658249 0.0032682730816304684 -0.040128350257873535 -0.029784878715872765 0.021947255358099937 -0.04125670716166496 -0.01149733830243349 -0.010575476102530956 0.003129753516986966 -0.008196155540645123 -0.06940503418445587 -0.03948228433728218 -0.009571130387485027 0.013785344548523426 0.047515470534563065 0.076067253947258 0.004057575017213821 0.01829512044787407 -0.02268538996577263 0.0031425952911376953 0.0033424138091504574 -0.044472623616456985 0.007870281115174294 -0.02942347154021263 0.05000152438879013 -0.007980294525623322 -0.03646636754274368 0.01294650323688984 0.00430747726932168 -0.03587539494037628 -0.04559509456157684 -0.01589878275990486 -0.04406144469976425 0.0146449264138937 0.03830799460411072 0.02837808057665825 0.0033110559452325106 0.08559982478618622 0.024007871747016907 0.09376867115497589 0.06420817226171494 0.0031402483582496643 0.005787649191915989 0.02062230184674263 0.0060783373191952705 0.02018616534769535 -0.04573558643460274 -0.06531963497400284 -0.019301097840070724 -0.009301366284489632 -0.06278993934392929 0.03875047713518143 0.08922505378723145 -0.05836794525384903 -0.03514590114355087 0.0872136577963829 0.1142067164182663 0.026895325630903244 -0.015076170675456524 0.05212172120809555 -0.01024394016712904 -0.03511336073279381 0.05269979313015938 -0.0802750438451767 0.00245091924443841 0.08616086095571518 0.019774535670876503 -0.032310597598552704 -0.012521788477897644 -0.07129357010126114 -0.03796931728720665
9 -0.07800205051898956 -0.062029387801885605 0.10405892133712769 0.04904438182711601 -0.005943750496953726 -0.03873278573155403 0.02914242632687092 -0.12532787024974823 -0.08786863833665848 0.057802196592092514 0.07678387314081192 -0.017274310812354088 -0.03430488333106041 -0.043109070509672165 -0.04719201847910881 0.14415033161640167 0.07456285506486893 -0.07498268038034439 0.13243883848190308 -0.012968319468200207 -0.09677755832672119 0.09005850553512573 0.03779848292469978 0.02180316112935543 -0.0028253362979739904 -0.019970955327153206 0.08640730381011963 0.04792647436261177 -0.03704041615128517 0.006321663502603769 -0.01460955198854208 -0.050903383642435074 -0.0511721707880497 -0.01861690543591976 -0.018429165706038475 0.037032321095466614 -0.0398632250726223 -0.08146455138921738 -0.04810618236660957 -0.08869734406471252 -0.026917612180113792 0.028656914830207825 -0.026158010587096214 0.05426713451743126 0.050561219453811646 0.04039562866091728 -0.019528575241565704 0.008293863385915756 -0.0010397160658612847 -0.006010862533003092 -0.008027303032577038 -0.028383560478687286 -0.06312199681997299 0.015651056542992592 -0.0003349085745867342 -0.0013500103959813714 -0.04517263174057007 -0.02421271800994873 -0.03447846695780754 -0.11184506863355637 0.0016092024743556976 -0.05597902834415436 0.052333589643239975 -0.019442806020379066 0.1112990751862526 0.07509379833936691 0.0509173758327961 0.018060756847262383 0.06118003651499748 0.039553072303533554 -0.046959877014160156 0.05460071936249733 -0.058257777243852615 -0.06448429077863693 0.06293343752622604 -0.10888480395078659 -0.07030359655618668 -0.05438978597521782 -0.026932714506983757 -0.13432343304157257 0.05813313648104668 0.1117488369345665 -0.07006440311670303 -0.051590073853731155 0.10532032698392868 0.10432571172714233 0.04010242968797684 -0.03210717812180519 0.048121292144060135 -0.09264909476041794 -0.07679345458745956 0.06299480050802231 -0.051879286766052246 0.045469582080841064 0.08337745070457458 0.0052341572009027 -0.046266138553619385 -0.009508310817182064 -0.028910525143146515 -0.008526240475475788
12 -0.03941052407026291 0.0064233168959617615 -0.007364068180322647 0.03470323234796524 0.02316659688949585 0.03924409672617912 -0.030125319957733154 -0.011194061487913132 -0.08596792072057724 0.054565705358982086 0.09432683140039444 -0.02749023586511612 -0.05635396018624306 -0.08563502877950668 0.024552084505558014 0.05536102131009102 0.16290178894996643 0.07186633348464966 0.021926723420619965 0.053149767220020294 0.011029329150915146 0.03407128155231476 0.09986554086208344 0.03254342079162598 0.058142468333244324 0.0928039699792862 -0.005321502685546875 -0.017543219029903412 -0.08345509320497513 0.09836839139461517 0.06889350712299347 -0.03339086472988129 -0.0166540015488863 -0.006576036103069782 -0.11428718268871307 -0.0290164016187191 0.049716122448444366 -0.02257874608039856 -0.02509075030684471 -0.10792902857065201 -0.012352718971669674 -0.015739645808935165 0.07863858342170715 0.06491641700267792 0.10759960114955902 0.05194108188152313 0.031379081308841705 0.03110405057668686 -0.06170283257961273 -0.05867554247379303 -0.07565198838710785 -0.04158404842019081 -0.03670859336853027 0.027796631678938866 0.1113644391298294 -0.09227462112903595 0.05457372963428497 -0.09504389762878418 -0.011648334562778473 0.04388386011123657 0.00043505430221557617 -0.0546887181699276 -0.08800879120826721 0.0844627246260643 0.027738861739635468 -0.08446738123893738 0.1436939537525177 0.015446244738996029 0.09791958332061768 0.020866014063358307 -0.0013163387775421143 0.07950547337532043 0.08291642367839813 0.025068391114473343 0.08165556192398071 -0.08067608624696732 -0.05297432094812393 0.12462519109249115 -0.11326530575752258 -0.055147841572761536 0.08151089400053024 0.09205440431833267 0.02151336707174778 0.14205744862556458 0.1074010580778122 0.12678898870944977 -0.02859102562069893 -0.10892858356237411 0.07265834510326385 -0.0016017630696296692 0.0065576620399951935 0.037470221519470215 -0.06423269212245941 -0.10247881710529327 0.1258031576871872 -0.035683415830135345 -0.07640855014324188 -0.05126236006617546 -0.09597829729318619 -0.007914800196886063
13 -0.04082486405968666 0.0036154277622699738 -0.0008990578353404999 0.061174504458904266 0.06915856897830963 0.032251931726932526 -0.06074577197432518 -0.010796450078487396 -0.08254136890172958 0.01744338870048523 0.04322078451514244 0.07932087779045105 -0.04824262112379074 -0.031074797734618187 -0.04413504898548126 0.12479908019304276 0.03692004084587097 -0.0271681509912014 0.08061431348323822 0.0028652034234255552 -0.0689464807510376 0.03480084612965584 0.07169436663389206 -0.06558898836374283 0.09400935471057892 -0.08952082693576813 -0.00959916040301323 0.04801894351840019 0.03965028002858162 -0.06320758163928986 -0.003547079861164093 -0.03247058391571045 -0.031121760606765747 0.03369656950235367 -0.018786359578371048 -0.0021955356933176517 -0.009441424161195755 0.04583519697189331 0.019671855494379997 -0.076520174741745 -0.04134604334831238 -0.02719471976161003 0.010288475081324577 0.06461875885725021 0.07001705467700958 -0.007231800816953182 0.01820605993270874 -0.05913317948579788 0.013500679284334183 0.01632011868059635 -0.05206812173128128 0.033049941062927246 -0.01125284843146801 0.06078312546014786 -0.04688667505979538 -0.03395138680934906 0.016361812129616737 0.040568359196186066 -0.07640349864959717 -0.044060442596673965 -0.045127686113119125 -0.03457903116941452 0.02592156082391739 0.04708516225218773 0.004645109176635742 0.004870578646659851 0.06928013265132904 0.0363319031894207 0.09934229403734207 0.08142592757940292 0.03712676465511322 -0.02893647737801075 0.016792550683021545 0.03337117284536362 -0.0003618551418185234 -0.021900378167629242 -0.04460209608078003 -0.051933228969573975 0.017575599253177643 -0.05595604330301285 0.018418941646814346 0.08357980847358704 -0.07878848165273666 -0.08241783082485199 0.0676896795630455 0.10825508832931519 0.018601069226861 0.01816820353269577 0.04567543417215347 0.028820272535085678 -0.03294934704899788 0.053009383380413055 -0.10869097709655762 0.016039617359638214 0.08270213752985 0.06392686069011688 -0.028382282704114914 -0.004488648846745491 -0.07502634078264236 -0.07359226793050766
14 -0.03636769950389862 -0.14039243757724762 0.13328345119953156 0.025331929326057434 -0.07160362601280212 -0.06280333548784256 0.02963525801897049 -0.11044140160083771 -0.11428168416023254 0.03192372992634773 0.14561647176742554 -0.09771803021430969 -0.03110673278570175 0.001433204859495163 -0.026626907289028168 0.1327267289161682 0.054951261729002 -0.04486029967665672 0.11655708402395248 0.05228591337800026 -0.06374693661928177 0.09288670122623444 0.0678786188364029 0.07243441045284271 0.002255776897072792 0.012926384806632996 0.08877342939376831 0.006866674870252609 -0.12680473923683167 0.08468082547187805 0.014219051226973534 -0.07650847733020782 -0.06078799068927765 -0.09299952536821365 -0.06517473608255386 -0.02172922156751156 -0.007384400814771652 -0.15129101276397705 -0.1449032574892044 -0.10185541212558746 -0.09017911553382874 0.021083775907754898 0.03773389011621475 0.00984980259090662 -0.004418577998876572 0.11029388010501862 -0.02515115961432457 0.03971126675605774 -0.04321522265672684 0.05685894563794136 -0.07157580554485321 -0.02651984989643097 -0.07394039630889893 0.05809304490685463 0.07452552765607834 0.04994227737188339 -0.048686664551496506 -0.11502847820520401 -0.008749663829803467 -0.08873435854911804 -0.004335638135671616 -0.09439949691295624 0.026669437065720558 -0.030408425256609917 0.10760124772787094 0.06179831176996231 0.09868672490119934 0.03794819116592407 0.07818594574928284 0.03780297935009003 -0.12728171050548553 0.013486288487911224 -0.04472541809082031 -0.0538095198571682 0.12201151251792908 -0.1174616813659668 -0.1265559196472168 -0.016323033720254898 -0.0017261318862438202 -0.11670807003974915 0.050111860036849976 0.09326007217168808 -0.06751447916030884 0.00018233805894851685 0.10739375650882721 0.12943966686725616 0.10313872992992401 -0.03723553568124771 0.09316316246986389 -0.13687722384929657 -0.08428933471441269 0.0938786119222641 -0.03070918470621109 0.004101719707250595 0.059838615357875824 -0.04772939532995224 -0.04427628219127655 -0.018915491178631783 -0.057086244225502014 0.032939810305833817
