5 100
5 -0.026679830625653267 -0.03183374181389809 0.025226855650544167 0.040160153061151505 0.019938120618462563 0.009314488619565964 -0.052942197769880295 -0.040610171854496 -0.06953803449869156 0.06405004113912582 0.04212803766131401 0.051901742815971375 -0.0533788800239563 -0.009227094240486622 -0.024837525561451912 0.10168134421110153 0.06728654354810715 0.01231008768081665 0.05871663987636566 0.0376037172973156 -0.03954949229955673 0.041659217327833176 0.08016287535429001 -0.013960081152617931 0.07775190472602844 -0.031548406928777695 0.008740885183215141 0.04286603257060051 -0.018334338441491127 -0.017317302525043488 0.026142343878746033 -0.00627473508939147 -0.04819318652153015 0.02619987726211548 -0.01110079139471054 -0.006488724146038294 0.005820946302264929 0.01814536564052105 0.020439663901925087 -0.06315366178750992 -0.039017193019390106 0.009588144719600677 -0.0173687394708395 0.04605897143483162 0.06553205102682114 0.029133865609765053 -0.00588540593162179 -0.019379353150725365 0.02846403978765011 0.011222824454307556 -0.02191127836704254 0.013907339423894882 -0.016539569944143295 0.04800328612327576 -0.005382017698138952 -0.010409708134829998 0.032626595348119736 0.020319748669862747 -0.04109015688300133 -0.05396747589111328 -0.031785957515239716 -0.04324432089924812 -0.0019027566304430366 0.008336608298122883 0.01274974923580885 0.023479392752051353 0.08649980276823044 -0.007297977805137634 0.06588681787252426 0.07687347382307053 0.000508951663505286 0.025664830580353737 0.009969671256840229 0.003768098307773471 0.002471720101311803 -0.028563639149069786 -0.07827455550432205 0.0003100559115409851 -0.021163081750273705 -0.03659661114215851 0.014507918618619442 0.061214447021484375 -0.025319615378975868 -0.014330112375319004 0.08453220874071121 0.10391087085008621 0.039548326283693314 -0.015291034244000912 0.06597911566495895 0.012855316512286663 -0.009664409793913364 0.06903203576803207 -0.08065527677536011 -0.019274219870567322 0.05274834856390953 0.018140794709324837 -0.021736765280365944 0.012236918322741985 -0.07769926637411118 -0.013335764408111572
9 -0.09657590836286545 -0.055073805153369904 0.062089525163173676 0.06092564016580582 0.01736254058778286 -0.014462235383689404 -0.003224046900868416 -0.06532281637191772 -0.07891926169395447 0.07072214782238007 0.06834840029478073 0.025693070143461227 -0.00524325855076313 -0.02654702216386795 -0.05382440239191055 0.14829067885875702 0.0379367358982563 -0.029287217184901237 0.139644593000412 0.029844896867871284 -0.07839222252368927 0.09391923993825912 0.0649183839559555 -0.0011799633502960205 0.03592300787568092 -0.05513996630907059 0.0667310431599617 0.03250635042786598 0.0061597637832164764 -0.030145425349473953 -0.022728990763425827 -0.051154863089323044 -0.035013437271118164 0.024459589272737503 -0.02721181884407997 -0.012039609253406525 -0.041855327785015106 -0.026721443980932236 -0.027616867795586586 -0.04302790015935898 -0.0511833056807518 0.011136716231703758 -0.015144404023885727 0.02171170711517334 0.06635128706693649 -0.008594803512096405 0.011842198669910431 -0.013132321648299694 0.02520722523331642 0.02137368731200695 -0.02128744311630726 0.007417785003781319 -0.04395153746008873 0.05032237619161606 -0.028746280819177628 -0.0110772168263793 -0.01128242164850235 0.01772228255867958 -0.0074608214199543 -0.09186922013759613 0.005163206253200769 -0.04823021590709686 0.05469515174627304 0.006453460082411766 0.052430666983127594 0.04564075171947479 0.07287244498729706 0.015964657068252563 0.08611959218978882 0.06866150349378586 -0.02861797623336315 0.0036528632044792175 -0.006695009768009186 -0.0307095218449831 0.009999491274356842 -0.052100542932748795 -0.0922098308801651 -0.05863211303949356 0.015803640708327293 -0.07344488799571991 0.0377018004655838 0.09345562011003494 -0.07788806408643723 -0.07647566497325897 0.09664393961429596 0.11386720836162567 0.06293275952339172 -0.0013943370431661606 0.04829968884587288 -0.05362924188375473 -0.058112889528274536 0.060004979372024536 -0.05988030508160591 0.0413270927965641 0.06979844719171524 0.003351185005158186 -0.014189928770065308 -0.0011846409179270267 -0.05521843582391739 -0.017373627051711082
12 -0.0035688281059265137 0.00009384378790855408 0.040977075695991516 0.029263345524668694 0.024397943168878555 -0.004764119628816843 -0.0657157301902771 -0.1176646277308464 -0.021690795198082924 0.13148128986358643 -0.06278915703296661 0.13624295592308044 -0.09882435947656631 0.006661251187324524 -0.032990291714668274 0.08777253329753876 0.10244499146938324 -0.010161269456148148 0.02702881023287773 -0.018212229013442993 -0.05824384093284607 0.021422967314720154 0.04276221990585327 -0.0311126708984375 0.06775834411382675 -0.03926923871040344 0.012589061632752419 0.12186743319034576 0.012158595025539398 -0.08298142999410629 0.03412296622991562 0.08165007084608078 -0.08608762919902802 0.0888056606054306 0.10737038403749466 0.0865548774600029 -0.008508909493684769 0.07570590078830719 0.1545533537864685 -0.0471390038728714 0.031456828117370605 0.07459385693073273 -0.16354048252105713 0.09093914926052094 0.08668840676546097 0.02755722403526306 -0.06753572076559067 -0.028695056214928627 0.11919127404689789 -0.04056280106306076 0.10498256981372833 0.005990825593471527 0.003197368234395981 -0.015610415488481522 -0.07122320681810379 0.007969498634338379 0.04644123464822769 0.1288999617099762 -0.07655002176761627 -0.12694793939590454 -0.04886147379875183 -0.00914839655160904 0.009510356932878494 -0.06951594352722168 0.02665140852332115 0.11300292611122131 0.023189187049865723 -0.09277066588401794 -0.0231771320104599 0.0916266217827797 0.05051812529563904 0.13094016909599304 -0.06430798768997192 -0.04680845886468887 -0.07066160440444946 -0.017217474058270454 -0.05042404681444168 -0.016078732907772064 -0.078908771276474 -0.03759206458926201 -0.016264591366052628 0.034943871200084686 0.03237888962030411 -0.032693032175302505 0.08614922314882278 0.05326472967863083 0.008421573787927628 -0.019107908010482788 0.04665180668234825 0.062079381197690964 0.027889320626854897 0.07596021890640259 -0.08838795125484467 0.00015269964933395386 0.0080704465508461 0.060566678643226624 -0.009556730277836323 0.07266824692487717 -0.04114342853426933 0.009186830371618271
13 0.038026098161935806 -0.04368600994348526 -0.0032154545187950134 0.027571532875299454 0.01866954378783703 0.02516571618616581 -0.10768201947212219 0.007921645417809486 -0.0758654847741127 0.028404470533132553 0.04226686805486679 0.07563579082489014 -0.07730421423912048 0.03835263103246689 -0.016469072550535202 0.08518657088279724 0.031249508261680603 0.03536494821310043 0.012027552351355553 0.06549748033285141 -0.016648996621370316 0.0033112727105617523 0.10425636917352676 -0.04141565412282944 0.13438230752944946 -0.06627262383699417 -0.044142164289951324 0.04392962530255318 -0.02551453560590744 -0.029499970376491547 0.04964778199791908 0.008201055228710175 -0.05819530785083771 0.013025234453380108 -0.002632156014442444 -0.03619580343365669 0.03871455788612366 0.05459396541118622 0.024204552173614502 -0.06889906525611877 -0.0754203349351883 -0.011799389496445656 0.005489140748977661 0.03853743523359299 0.033100854605436325 0.056247249245643616 -0.011420097202062607 -0.046210236847400665 0.03144066780805588 0.06191395968198776 -0.059111692011356354 0.05210084468126297 0.011088438332080841 0.08759437501430511 -0.007470389828085899 0.02200065553188324 0.05865471810102463 0.0263089369982481 -0.07171046733856201 -0.028501175343990326 -0.07630786299705505 -0.04958418384194374 -0.02115420624613762 0.011082973331212997 -0.04137655347585678 0.01052965596318245 0.10318537801504135 0.0008036233484745026 0.07416962087154388 0.10571261495351791 0.005543937906622887 -0.0318811871111393 0.027299806475639343 0.052883852273225784 -0.008081304840743542 0.015356408432126045 -0.09091464430093765 0.005289044231176376 0.016794154420495033 0.010025011375546455 -0.026801198720932007 0.02668856829404831 -0.025016911327838898 -0.021196892485022545 0.06017756462097168 0.10783855617046356 0.06579694151878357 0.0195394828915596 0.08998255431652069 0.06195638328790665 0.0118961650878191 0.09037590771913528 -0.10577520728111267 -0.04798668995499611 0.0215098038315773 0.03862956911325455 -0.00803772360086441 0.027192451059818268 -0.10931850969791412 -0.02326967939734459
14 -0.07800205051898956 -0.062029387801885605 0.10405892133712769 0.04904438182711601 -0.005943750496953726 -0.03873278573155403 0.02914242632687092 -0.12532787024974823 -0.08786863833665848 0.057802196592092514 0.07678387314081192 -0.017274310812354088 -0.03430488333106041 -0.043109070509672165 -0.04719201847910881 0.14415033161640167 0.07456285506486893 -0.07498268038034439 0.13243883848190308 -0.012968319468200207 -0.09677755832672119 0.09005850553512573 0.03779848292469978 0.02180316112935543 -0.0028253362979739904 -0.019970955327153206 0.08640730381011963 0.04792647436261177 -0.03704041615128517 0.006321663502603769 -0.01460955198854208 -0.050903383642435074 -0.0511721707880497 -0.01861690543591976 -0.018429165706038475 0.037032321095466614 -0.0398632250726223 -0.08146455138921738 -0.04810618236660957 -0.08869734406471252 -0.026917612180113792 0.028656914830207825 -0.026158010587096214 0.05426713451743126 0.050561219453811646 0.04039562866091728 -0.019528575241565704 0.008293863385915756 -0.0010397160658612847 -0.006010862533003092 -0.008027303032577038 -0.028383560478687286 -0.06312199681997299 0.015651056542992592 -0.0003349085745867342 -0.0013500103959813714 -0.04517263174057007 -0.02421271800994873 -0.03447846695780754 -0.11184506863355637 0.0016092024743556976 -0.05597902834415436 0.052333589643239975 -0.019442806020379066 0.1112990751862526 0.07509379833936691 0.0509173758327961 0.018060756847262383 0.06118003651499748 0.039553072303533554 -0.046959877014160156 0.05460071936249733 -0.058257777243852615 -0.06448429077863693 0.06293343752622604 -0.10888480395078659 -0.07030359655618668 -0.05438978597521782 -0.026932714506983757 -0.13432343304157257 0.05813313648104668 0.1117488369345665 -0.07006440311670303 -0.051590073853731155 0.10532032698392868 0.10432571172714233 0.04010242968797684 -0.03210717812180519 0.048121292144060135 -0.09264909476041794 -0.07679345458745956 0.06299480050802231 -0.051879286766052246 0.045469582080841064 0.08337745070457458 0.0052341572009027 -0.046266138553619385 -0.009508310817182064 -0.028910525143146515 -0.008526240475475788
