24 100
6 -0.02062920667231083 -0.0019435619469732046 0.018015211448073387 0.018903853371739388 0.010634087957441807 0.015293258242309093 0.021145213395357132 -0.0026370680425316095 0.002179534174501896 0.034143127501010895 0.0031980376224964857 0.014608705416321754 -0.007852512411773205 -0.0010904798982664943 0.01605532504618168 0.030528029426932335 0.008329390548169613 0.01084892824292183 0.019390134140849113 0.03898776322603226 -0.023697419092059135 -0.0010537758935242891 0.01489388756453991 -0.03391801565885544 0.021620070561766624 -0.0031409645453095436 0.014146468602120876 0.007782622240483761 0.019166849553585052 0.003364107571542263 -0.004732181783765554 0.005036457907408476 0.0038434492889791727 0.021789586171507835 -0.00025946248206309974 -0.024518609046936035 0.002483150688931346 0.002421383513137698 0.03129003942012787 -0.00048219351447187364 0.01672934554517269 0.051172126084566116 0.004262030124664307 -0.0245896577835083 0.013033153489232063 0.011568616144359112 -0.008473655208945274 -0.016710417345166206 -0.005682127550244331 0.0009581373305991292 -0.006531876511871815 -0.007138269022107124 0.0030275587923824787 -0.012582319788634777 0.007164319511502981 0.00035530776949599385 0.023020019754767418 0.015107808634638786 -0.0024249970447272062 -0.022082574665546417 0.016323281452059746 -0.018607312813401222 -0.0010205022990703583 -0.03323994576931 -0.007742711808532476 0.013306469656527042 -0.0017902347026392817 -0.03915678709745407 0.001926617813296616 0.029086705297231674 0.0033817270305007696 0.005138143431395292 -0.008866986259818077 0.00438728230074048 -0.03374927118420601 -0.022422868758440018 -0.0032782405614852905 -0.007587472442537546 -0.020656533539295197 -0.012710223905742168 0.020363230258226395 0.01844198815524578 0.012675839476287365 -0.0029636675026267767 -0.006733527407050133 0.01641920581459999 0.007115728687494993 -0.008636156097054482 0.024115532636642456 0.028763534501194954 -0.010889535769820213 0.018695950508117676 -0.04562877491116524 0.009633254259824753 0.014565681107342243 -0.02062331885099411 0.01493406668305397 0.012324828654527664 -0.00840243510901928 -0.0033747197594493628
21 0.011024929583072662 -0.005145023111253977 -0.007801454979926348 -0.00009807134483708069 0.008276932872831821 0.036051489412784576 -0.018272792920470238 -0.0012367640156298876 0.005722545552998781 0.06269992887973785 0.016094673424959183 0.05433743819594383 -0.004480001050978899 -0.009397969581186771 -0.0020117629319429398 0.0057317703031003475 0.0315517820417881 0.005521969869732857 0.022970549762248993 0.04928845912218094 -0.008606153540313244 -0.014845381490886211 0.011266394518315792 -0.04949238523840904 0.009529776871204376 -0.028484219685196877 -0.01936025172472 0.0025985108222812414 0.03469596058130264 0.013848397880792618 0.008672398515045643 0.014613124541938305 -0.013702615164220333 0.0073715331964194775 0.009801216423511505 -0.019375376403331757 0.009350643493235111 -0.001150663709267974 0.026357777416706085 -0.01661713793873787 0.0176550205796957 0.04440576955676079 -0.016270631924271584 -0.024328965693712234 0.027590181678533554 0.0005003322148695588 0.003400404704734683 -0.025699807330965996 -0.023061666637659073 -0.0008655139245092869 0.008768992498517036 -0.007087096571922302 -0.01352318748831749 -0.01700516790151596 0.003916374407708645 -0.013635012321174145 0.036078762263059616 0.012326347641646862 0.007391246035695076 -0.022665804252028465 0.0037321243435144424 0.011029597371816635 -0.00976506620645523 -0.0007493641460314393 -0.0187399722635746 -0.0018327588913962245 -0.023287884891033173 -0.03698670119047165 0.014568834565579891 0.03437814116477966 0.024708759039640427 -0.009841486811637878 0.0015626756940037012 -0.021253885701298714 -0.03709782287478447 -0.024052392691373825 -0.036573804914951324 -0.012019114568829536 -0.005052444525063038 -0.010603165253996849 -0.004527917597442865 0.01940837875008583 0.024083878844976425 -0.014055044390261173 -0.02456413395702839 0.008230320177972317 0.007462506182491779 -0.00842348299920559 0.013403091579675674 0.0033539789728820324 -0.02652631141245365 -0.01386017631739378 -0.020623808726668358 0.0033677800092846155 0.02011001855134964 0.0029703984037041664 0.012700160965323448 0.014403213746845722 -0.02076459862291813 0.010749072767794132
22 -0.07669621706008911 0.012877719476819038 -0.032731879502534866 -0.017002921551465988 0.040094003081321716 -0.04497288540005684 -0.09428337216377258 0.08386460691690445 -0.031162980943918228 0.11570444703102112 0.010580465197563171 0.08979327231645584 0.005645774770528078 0.06879273056983948 0.007563114166259766 0.05045170336961746 0.0036529989447444677 0.06840872764587402 0.05019933730363846 0.10220491886138916 -0.0159118864685297 0.04470335319638252 0.03766743838787079 -0.05452841892838478 -0.02534922957420349 -0.07893357425928116 -0.04068639874458313 -0.024597998708486557 0.09476864337921143 0.03589014336466789 -0.035133764147758484 0.06579278409481049 -0.06532277166843414 0.046807847917079926 -0.04985172674059868 -0.07825540751218796 -0.04358498007059097 0.054522331804037094 -0.010184802114963531 0.02116497792303562 0.012245198711752892 -0.01841374672949314 -0.0232166089117527 -0.012840792536735535 0.03867528587579727 -0.08295087516307831 0.07046740502119064 -0.05032029375433922 -0.017241651192307472 0.027271557599306107 0.09008936583995819 0.046929605305194855 0.04159899055957794 0.06967706978321075 0.006012662313878536 -0.11124870181083679 -0.018920524045825005 0.04953185096383095 0.06315454840660095 -0.034209661185741425 0.09664244949817657 0.06386768072843552 -0.006365898996591568 -0.0316663421690464 -0.023877475410699844 0.01628430001437664 0.035585347563028336 -0.040350206196308136 0.06542772799730301 0.008574148640036583 0.005149804521352053 -0.10494829714298248 0.07254549115896225 -0.046353936195373535 -0.035883672535419464 -0.010293042287230492 -0.07894900441169739 -0.041165441274642944 -0.01714329794049263 0.0383695513010025 -0.011328492313623428 0.0959969013929367 0.06187289208173752 -0.07347065955400467 0.03821312636137009 0.03231917321681976 -0.013842581771314144 0.030469350516796112 0.014466632157564163 0.03962835669517517 -0.06563176959753036 0.06534873694181442 -0.05325045809149742 0.02624189481139183 -0.036582790315151215 -0.010879186913371086 0.024091755971312523 -0.07993966341018677 -0.0181807279586792 0.024950403720140457
31 0.004884121008217335 -0.018806979060173035 -0.019400538876652718 0.000832223508041352 0.006572067737579346 0.014163107611238956 -0.019596869125962257 -0.003506029723212123 -0.01485014520585537 0.04103442281484604 0.025322124361991882 0.042504243552684784 -0.04024423286318779 0.0009595142910256982 0.005146491341292858 0.03632437065243721 0.03807025030255318 0.02608656883239746 0.001485436805523932 0.04287632927298546 0.024272572249174118 -0.015613353811204433 0.009525704197585583 -0.0278050284832716 0.01882455125451088 -0.01240251213312149 -0.001374152023345232 -0.011878244578838348 0.023827102035284042 0.031512100249528885 0.005125627387315035 0.028664633631706238 -0.03499026224017143 -0.008310195989906788 0.01390928402543068 -0.04020753502845764 0.009643424302339554 0.009713294915854931 0.03071513958275318 0.006987032014876604 0.01863832399249077 0.04364059865474701 -0.028831031173467636 -0.018858056515455246 0.003648767713457346 -0.009751019068062305 -0.019518522545695305 -0.020649855956435204 -0.033365990966558456 -0.013063211925327778 -0.02717253752052784 0.01054324209690094 -0.02284751832485199 -0.0008201458840630949 0.006451585795730352 0.0042031691409647465 0.008788748644292355 0.0030794749036431313 0.002067943336442113 -0.022427761927247047 0.003633558051660657 0.009641849435865879 -0.03140949830412865 -0.013132953085005283 -0.01074573490768671 0.010591904632747173 -0.03249964863061905 -0.01910102553665638 0.018183648586273193 0.03266635164618492 0.033718403428792953 0.009727108292281628 0.010558986105024815 -0.0017586266621947289 -0.0713219866156578 -0.0036516920663416386 -0.020364511758089066 0.0013201026013121009 -0.01710459403693676 0.012852645479142666 0.013725314289331436 0.03450290858745575 -0.012141959741711617 0.010115696117281914 -0.015844479203224182 0.02530010975897312 0.00035410537384450436 0.006631575059145689 0.0213288776576519 0.015194832347333431 -0.022734150290489197 0.0008869313751347363 -0.01096848864108324 0.010697335936129093 0.03989366814494133 0.010273035615682602 0.01894165202975273 0.010407961905002594 0.0007897900650277734 -0.009596207179129124
36 0.007116467691957951 0.0002762089716270566 0.025925245136022568 -0.011156473308801651 0.02623312547802925 -0.006779508665204048 -0.05297991260886192 -0.01294280681759119 -0.018646547570824623 0.0566437765955925 0.029681716114282608 0.04428960755467415 -0.013124566525220871 -0.017622020095586777 -0.00474172318354249 0.013185613788664341 0.05045835301280022 0.03167818486690521 0.05852491408586502 0.02406296879053116 -0.013786363415420055 -0.00275457464158535 0.026991529390215874 -0.03352907672524452 0.01433078944683075 -0.04950335994362831 -0.007642205338925123 -0.01682303100824356 0.05810721218585968 0.008375929668545723 0.010526696220040321 0.01634981669485569 -0.010996164754033089 0.025762975215911865 -0.023939695209264755 0.006428483407944441 0.006729370914399624 0.013655616901814938 0.023424765095114708 -0.016044458374381065 0.028610829263925552 0.03588683903217316 -0.009730154648423195 -0.013481738977134228 0.04263683035969734 0.0061683072708547115 0.010412653908133507 -0.04144447296857834 -0.019434265792369843 0.00660710921511054 0.026185525581240654 -0.0005688162054866552 -0.00497785210609436 0.02204190380871296 -0.010301887057721615 -0.01866290532052517 0.050203338265419006 0.010789195075631142 -0.030513273552060127 -0.059815067797899246 0.028937075287103653 -0.003798902966082096 0.008293865248560905 -0.002714379457756877 0.00985252857208252 0.004712686873972416 -0.0015683157835155725 -0.03735462203621864 0.02700524404644966 0.044254742562770844 0.022679390385746956 -0.005697884131222963 -0.004474329762160778 -0.010861046612262726 -0.030735187232494354 -0.02200472727417946 -0.016917426139116287 -0.015821244567632675 -0.023926233872771263 -0.0230002012103796 -0.01985502615571022 -0.009021111764013767 -0.004829017445445061 -0.009236249141395092 -0.00638422928750515 0.0020830328576266766 -0.010825220495462418 0.004950532224029303 0.031130164861679077 0.011898558586835861 -0.01069666724652052 0.0018408787436783314 -0.018214542418718338 -0.023288317024707794 0.029773510992527008 0.010320443660020828 -0.0046508898958563805 0.015708468854427338 -0.046328797936439514 -0.016413720324635506
a1b38be9-c8fb-4164-a554-64ac91d267e0 -0.04471761733293533 0.10902707278728485 -0.04403574764728546 0.06585073471069336 0.12598715722560883 0.0708836242556572 -0.05836307257413864 -0.028461836278438568 -0.06394414603710175 0.02887961082160473 -0.008467627689242363 0.11172159016132355 -0.09163118153810501 -0.11308690905570984 -0.022265423089265823 0.08794987201690674 0.13733646273612976 -0.029154084622859955 0.034212298691272736 -0.07181791961193085 -0.06631394475698471 0.00012132525444030762 0.04563827067613602 -0.0882805734872818 0.08071966469287872 -0.031017489731311798 -0.03813236951828003 0.07207384705543518 0.06293763965368271 -0.05902097001671791 0.017436709254980087 0.002227295422926545 -0.02035978063941002 0.07099228352308273 -0.010874122381210327 0.07247155904769897 0.00464460626244545 0.09028895944356918 0.10792773216962814 -0.11867553740739822 0.053631339222192764 -0.024383898824453354 -0.011923670768737793 0.14698275923728943 0.13766694068908691 -0.022313298657536507 0.017557084560394287 -0.057767368853092194 -0.0007796734571456909 -0.10018405318260193 -0.009149681776762009 -0.0112376119941473 -0.006468110717833042 -0.010504430159926414 -0.037516023963689804 -0.1210256963968277 0.03573659062385559 0.053822342306375504 -0.11787358671426773 -0.009377680718898773 -0.04320966824889183 -0.0032187961041927338 -0.020917050540447235 0.08419152349233627 0.025319453328847885 -0.032420288771390915 0.04577307403087616 0.017122074961662292 0.07567144930362701 0.044759318232536316 0.12207399308681488 0.07545974105596542 0.022162627428770065 0.03362736478447914 0.0025858543813228607 -0.055867474526166916 0.042358867824077606 0.003934092819690704 -0.09369252622127533 -0.09468057006597519 0.059044092893600464 0.11068125814199448 -0.02773226797580719 -0.012423813343048096 0.07526172697544098 0.08479434996843338 -0.10188722610473633 -0.045597538352012634 0.012671010568737984 0.07946860045194626 -0.002197304740548134 0.012284528464078903 -0.12774662673473358 -0.012641705572605133 0.14101891219615936 0.09837590157985687 -0.07756920158863068 -0.024268556386232376 -0.05376308783888817 -0.10597376525402069
474825a1-d255-4b75-a722-ef24418149f7 0.07209156453609467 0.12380178272724152 -0.1333412379026413 0.03520096093416214 0.1267586648464203 0.13267242908477783 -0.14516876637935638 0.09785866737365723 -0.09321214258670807 -0.051991816610097885 0.04407160356640816 0.07976537942886353 -0.14235268533229828 -0.09469058364629745 0.04393079876899719 0.008377828635275364 0.16086839139461517 0.07610447704792023 -0.09613382816314697 -0.0008096221135929227 0.02992081642150879 -0.08416549861431122 0.11341749876737595 -0.09627462923526764 0.17431515455245972 0.02404225617647171 -0.15798191726207733 0.013481968082487583 -0.016474049538373947 0.03224407881498337 0.10725732892751694 0.0039777085185050964 -0.008870641700923443 0.011897925287485123 -0.09743625670671463 -0.00932825542986393 0.11454392969608307 0.12253454327583313 0.06948669254779816 -0.17491357028484344 0.007321799639612436 -0.09240251779556274 0.12950433790683746 0.15073052048683167 0.1149311363697052 0.05466708913445473 0.044106803834438324 -0.06089766323566437 -0.08511592447757721 -0.06878267973661423 -0.1372133493423462 0.009680264629423618 0.028688782826066017 0.048718128353357315 0.0750836506485939 -0.13802295923233032 0.10986220091581345 -0.04935174435377121 -0.1495336890220642 0.1395014077425003 -0.10014673322439194 -0.027386346831917763 -0.14555597305297852 0.16572612524032593 -0.06783225387334824 -0.16600772738456726 0.13650932908058167 0.05618073418736458 0.12436499446630478 0.046394865959882736 0.13017314672470093 0.014326791279017925 0.1298915445804596 0.15322977304458618 0.060932863503694534 -0.02027575485408306 0.04224115610122681 0.13802295923233032 -0.10972139239311218 -0.020170150324702263 0.042945172637701035 0.07230277359485626 0.0197125393897295 0.13017314672470093 0.049492549151182175 0.1155647560954094 -0.11725439876317978 -0.06980350613594055 0.06740984320640564 0.16329726576805115 0.056884750723838806 0.02347904071211815 -0.16185402870178223 -0.15305377542972565 0.15161053836345673 0.08546793460845947 -0.10479326546192169 -0.057870376855134964 -0.13559409976005554 -0.12035208195447922
de4d8a38-86bf-4464-9b87-f0b79a3048f0 -0.04471761733293533 0.10902707278728485 -0.04403574764728546 0.06585073471069336 0.12598715722560883 0.0708836242556572 -0.05836307257413864 -0.028461836278438568 -0.06394414603710175 0.02887961082160473 -0.008467627689242363 0.11172159016132355 -0.09163118153810501 -0.11308690905570984 -0.022265423089265823 0.08794987201690674 0.13733646273612976 -0.029154084622859955 0.034212298691272736 -0.07181791961193085 -0.06631394475698471 0.00012132525444030762 0.04563827067613602 -0.0882805734872818 0.08071966469287872 -0.031017489731311798 -0.03813236951828003 0.07207384705543518 0.06293763965368271 -0.05902097001671791 0.017436709254980087 0.002227295422926545 -0.02035978063941002 0.07099228352308273 -0.010874122381210327 0.07247155904769897 0.00464460626244545 0.09028895944356918 0.10792773216962814 -0.11867553740739822 0.053631339222192764 -0.024383898824453354 -0.011923670768737793 0.14698275923728943 0.13766694068908691 -0.022313298657536507 0.017557084560394287 -0.057767368853092194 -0.0007796734571456909 -0.10018405318260193 -0.009149681776762009 -0.0112376119941473 -0.006468110717833042 -0.010504430159926414 -0.037516023963689804 -0.1210256963968277 0.03573659062385559 0.053822342306375504 -0.11787358671426773 -0.009377680718898773 -0.04320966824889183 -0.0032187961041927338 -0.020917050540447235 0.08419152349233627 0.025319453328847885 -0.032420288771390915 0.04577307403087616 0.017122074961662292 0.07567144930362701 0.044759318232536316 0.12207399308681488 0.07545974105596542 0.022162627428770065 0.03362736478447914 0.0025858543813228607 -0.055867474526166916 0.042358867824077606 0.003934092819690704 -0.09369252622127533 -0.09468057006597519 0.059044092893600464 0.11068125814199448 -0.02773226797580719 -0.012423813343048096 0.07526172697544098 0.08479434996843338 -0.10188722610473633 -0.045597538352012634 0.012671010568737984 0.07946860045194626 -0.002197304740548134 0.012284528464078903 -0.12774662673473358 -0.012641705572605133 0.14101891219615936 0.09837590157985687 -0.07756920158863068 -0.024268556386232376 -0.05376308783888817 -0.10597376525402069
7ebc9163-202b-4cb5-bd47-93dd62e8103a -0.16152679920196533 0.09425236284732819 0.04526974633336067 0.09650051593780518 0.12521564960479736 0.009094825014472008 0.028442617505788803 -0.15478233993053436 -0.034676145762205124 0.10975103825330734 -0.06100685894489288 0.14367780089378357 -0.04090967774391174 -0.13148324191570282 -0.08846164494752884 0.1675219088792801 0.11380453407764435 -0.13441264629364014 0.16455842554569244 -0.14282621443271637 -0.1625487059354782 0.08440814912319183 -0.02214095927774906 -0.08028652518987656 -0.012875819578766823 -0.0860772356390953 0.08171717822551727 0.13066571950912476 0.14234933257102966 -0.1502860188484192 -0.07238391041755676 0.000476882210932672 -0.03184891864657402 0.13008664548397064 0.07568801194429398 0.15427137911319733 -0.10525471717119217 0.058043379336595535 0.14636877179145813 -0.062437504529953 0.09994088113307953 0.043634720146656036 -0.15335167944431305 0.143234983086586 0.16040273010730743 -0.09929368644952774 -0.008992635644972324 -0.05463707447052002 0.08355657756328583 -0.13158543407917023 0.11891398578882217 -0.032155487686395645 -0.0416250042617321 -0.06972698867321014 -0.1501156985759735 -0.10402844101190567 -0.038389015942811966 0.15699642896652222 -0.08621348440647125 -0.15825676918029785 0.013727394863963127 0.020948754623532295 0.10372187197208405 0.0026569149922579527 0.118471160531044 0.10116714984178543 -0.044963181018829346 -0.021936582401394844 0.0269779060035944 0.043123774230480194 0.11397484689950943 0.13659268617630005 -0.08556628972291946 -0.0859750434756279 -0.05576115474104881 -0.09145919233560562 0.04247657582163811 -0.1301547735929489 -0.07766366750001907 -0.16919098794460297 0.0751430094242096 0.1490597426891327 -0.07517707347869873 -0.15502077341079712 0.10103090107440948 0.05402394011616707 -0.08652005344629288 -0.021391572430729866 -0.04206782206892967 -0.004360065795481205 -0.061279360204935074 0.0010900164488703012 -0.09363922476768494 0.12777036428451538 0.130427286028862 0.11128386855125427 -0.05034513399004936 0.009333265945315361 0.028067924082279205 -0.09159544855356216
19574d7b-2d76-4e79-8423-1a146f888a6c -0.16152679920196533 0.09425236284732819 0.04526974633336067 0.09650051593780518 0.12521564960479736 0.009094825014472008 0.028442617505788803 -0.15478233993053436 -0.034676145762205124 0.10975103825330734 -0.06100685894489288 0.14367780089378357 -0.04090967774391174 -0.13148324191570282 -0.08846164494752884 0.1675219088792801 0.11380453407764435 -0.13441264629364014 0.16455842554569244 -0.14282621443271637 -0.1625487059354782 0.08440814912319183 -0.02214095927774906 -0.08028652518987656 -0.012875819578766823 -0.0860772356390953 0.08171717822551727 0.13066571950912476 0.14234933257102966 -0.1502860188484192 -0.07238391041755676 0.000476882210932672 -0.03184891864657402 0.13008664548397064 0.07568801194429398 0.15427137911319733 -0.10525471717119217 0.058043379336595535 0.14636877179145813 -0.062437504529953 0.09994088113307953 0.043634720146656036 -0.15335167944431305 0.143234983086586 0.16040273010730743 -0.09929368644952774 -0.008992635644972324 -0.05463707447052002 0.08355657756328583 -0.13158543407917023 0.11891398578882217 -0.032155487686395645 -0.0416250042617321 -0.06972698867321014 -0.1501156985759735 -0.10402844101190567 -0.038389015942811966 0.15699642896652222 -0.08621348440647125 -0.15825676918029785 0.013727394863963127 0.020948754623532295 0.10372187197208405 0.0026569149922579527 0.118471160531044 0.10116714984178543 -0.044963181018829346 -0.021936582401394844 0.0269779060035944 0.043123774230480194 0.11397484689950943 0.13659268617630005 -0.08556628972291946 -0.0859750434756279 -0.05576115474104881 -0.09145919233560562 0.04247657582163811 -0.1301547735929489 -0.07766366750001907 -0.16919098794460297 0.0751430094242096 0.1490597426891327 -0.07517707347869873 -0.15502077341079712 0.10103090107440948 0.05402394011616707 -0.08652005344629288 -0.021391572430729866 -0.04206782206892967 -0.004360065795481205 -0.061279360204935074 0.0010900164488703012 -0.09363922476768494 0.12777036428451538 0.130427286028862 0.11128386855125427 -0.05034513399004936 0.009333265945315361 0.028067924082279205 -0.09159544855356216
5f1e02de-f2dc-4be4-a4dc-fb4d38a5e991 -0.16152679920196533 0.09425236284732819 0.04526974633336067 0.09650051593780518 0.12521564960479736 0.009094825014472008 0.028442617505788803 -0.15478233993053436 -0.034676145762205124 0.10975103825330734 -0.06100685894489288 0.14367780089378357 -0.04090967774391174 -0.13148324191570282 -0.08846164494752884 0.1675219088792801 0.11380453407764435 -0.13441264629364014 0.16455842554569244 -0.14282621443271637 -0.1625487059354782 0.08440814912319183 -0.02214095927774906 -0.08028652518987656 -0.012875819578766823 -0.0860772356390953 0.08171717822551727 0.13066571950912476 0.14234933257102966 -0.1502860188484192 -0.07238391041755676 0.000476882210932672 -0.03184891864657402 0.13008664548397064 0.07568801194429398 0.15427137911319733 -0.10525471717119217 0.058043379336595535 0.14636877179145813 -0.062437504529953 0.09994088113307953 0.043634720146656036 -0.15335167944431305 0.143234983086586 0.16040273010730743 -0.09929368644952774 -0.008992635644972324 -0.05463707447052002 0.08355657756328583 -0.13158543407917023 0.11891398578882217 -0.032155487686395645 -0.0416250042617321 -0.06972698867321014 -0.1501156985759735 -0.10402844101190567 -0.038389015942811966 0.15699642896652222 -0.08621348440647125 -0.15825676918029785 0.013727394863963127 0.020948754623532295 0.10372187197208405 0.0026569149922579527 0.118471160531044 0.10116714984178543 -0.044963181018829346 -0.021936582401394844 0.0269779060035944 0.043123774230480194 0.11397484689950943 0.13659268617630005 -0.08556628972291946 -0.0859750434756279 -0.05576115474104881 -0.09145919233560562 0.04247657582163811 -0.1301547735929489 -0.07766366750001907 -0.16919098794460297 0.0751430094242096 0.1490597426891327 -0.07517707347869873 -0.15502077341079712 0.10103090107440948 0.05402394011616707 -0.08652005344629288 -0.021391572430729866 -0.04206782206892967 -0.004360065795481205 -0.061279360204935074 0.0010900164488703012 -0.09363922476768494 0.12777036428451538 0.130427286028862 0.11128386855125427 -0.05034513399004936 0.009333265945315361 0.028067924082279205 -0.09159544855356216
97160f0f-8d47-4054-9559-19edc72ef92c -0.04471761733293533 0.10902707278728485 -0.04403574764728546 0.06585073471069336 0.12598715722560883 0.0708836242556572 -0.05836307257413864 -0.028461836278438568 -0.06394414603710175 0.02887961082160473 -0.008467627689242363 0.11172159016132355 -0.09163118153810501 -0.11308690905570984 -0.022265423089265823 0.08794987201690674 0.13733646273612976 -0.029154084622859955 0.034212298691272736 -0.07181791961193085 -0.06631394475698471 0.00012132525444030762 0.04563827067613602 -0.0882805734872818 0.08071966469287872 -0.031017489731311798 -0.03813236951828003 0.07207384705543518 0.06293763965368271 -0.05902097001671791 0.017436709254980087 0.002227295422926545 -0.02035978063941002 0.07099228352308273 -0.010874122381210327 0.07247155904769897 0.00464460626244545 0.09028895944356918 0.10792773216962814 -0.11867553740739822 0.053631339222192764 -0.024383898824453354 -0.011923670768737793 0.14698275923728943 0.13766694068908691 -0.022313298657536507 0.017557084560394287 -0.057767368853092194 -0.0007796734571456909 -0.10018405318260193 -0.009149681776762009 -0.0112376119941473 -0.006468110717833042 -0.010504430159926414 -0.037516023963689804 -0.1210256963968277 0.03573659062385559 0.053822342306375504 -0.11787358671426773 -0.009377680718898773 -0.04320966824889183 -0.0032187961041927338 -0.020917050540447235 0.08419152349233627 0.025319453328847885 -0.032420288771390915 0.04577307403087616 0.017122074961662292 0.07567144930362701 0.044759318232536316 0.12207399308681488 0.07545974105596542 0.022162627428770065 0.03362736478447914 0.0025858543813228607 -0.055867474526166916 0.042358867824077606 0.003934092819690704 -0.09369252622127533 -0.09468057006597519 0.059044092893600464 0.11068125814199448 -0.02773226797580719 -0.012423813343048096 0.07526172697544098 0.08479434996843338 -0.10188722610473633 -0.045597538352012634 0.012671010568737984 0.07946860045194626 -0.002197304740548134 0.012284528464078903 -0.12774662673473358 -0.012641705572605133 0.14101891219615936 0.09837590157985687 -0.07756920158863068 -0.024268556386232376 -0.05376308783888817 -0.10597376525402069
2a618242-1baf-4ae6-aecf-fcb3bc9824e1 -0.16152679920196533 0.09425236284732819 0.04526974633336067 0.09650051593780518 0.12521564960479736 0.009094825014472008 0.028442617505788803 -0.15478233993053436 -0.034676145762205124 0.10975103825330734 -0.06100685894489288 0.14367780089378357 -0.04090967774391174 -0.13148324191570282 -0.08846164494752884 0.1675219088792801 0.11380453407764435 -0.13441264629364014 0.16455842554569244 -0.14282621443271637 -0.1625487059354782 0.08440814912319183 -0.02214095927774906 -0.08028652518987656 -0.012875819578766823 -0.0860772356390953 0.08171717822551727 0.13066571950912476 0.14234933257102966 -0.1502860188484192 -0.07238391041755676 0.000476882210932672 -0.03184891864657402 0.13008664548397064 0.07568801194429398 0.15427137911319733 -0.10525471717119217 0.058043379336595535 0.14636877179145813 -0.062437504529953 0.09994088113307953 0.043634720146656036 -0.15335167944431305 0.143234983086586 0.16040273010730743 -0.09929368644952774 -0.008992635644972324 -0.05463707447052002 0.08355657756328583 -0.13158543407917023 0.11891398578882217 -0.032155487686395645 -0.0416250042617321 -0.06972698867321014 -0.1501156985759735 -0.10402844101190567 -0.038389015942811966 0.15699642896652222 -0.08621348440647125 -0.15825676918029785 0.013727394863963127 0.020948754623532295 0.10372187197208405 0.0026569149922579527 0.118471160531044 0.10116714984178543 -0.044963181018829346 -0.021936582401394844 0.0269779060035944 0.043123774230480194 0.11397484689950943 0.13659268617630005 -0.08556628972291946 -0.0859750434756279 -0.05576115474104881 -0.09145919233560562 0.04247657582163811 -0.1301547735929489 -0.07766366750001907 -0.16919098794460297 0.0751430094242096 0.1490597426891327 -0.07517707347869873 -0.15502077341079712 0.10103090107440948 0.05402394011616707 -0.08652005344629288 -0.021391572430729866 -0.04206782206892967 -0.004360065795481205 -0.061279360204935074 0.0010900164488703012 -0.09363922476768494 0.12777036428451538 0.130427286028862 0.11128386855125427 -0.05034513399004936 0.009333265945315361 0.028067924082279205 -0.09159544855356216
0276af34-7829-46fe-9174-310a648b7460 0.07792498916387558 -0.17290782928466797 0.14814311265945435 0.015071206726133823 -0.0618261992931366 -0.07145122438669205 -0.023052096366882324 -0.10121685266494751 -0.1475265622138977 -0.09731204062700272 0.1452658772468567 -0.05983954295516014 -0.09402377903461456 0.07919234037399292 -0.05970253050327301 0.16455017030239105 -0.051516126841306686 -0.15684331953525543 0.09261941909790039 -0.0006850548088550568 -0.11991885304450989 0.03596537932753563 0.04990624636411667 -0.019832337275147438 0.06062735244631767 -0.13608615100383759 0.03024516999721527 0.06316205859184265 -0.1042310893535614 0.005685955286026001 -0.002500450238585472 -0.08220658451318741 -0.09693525731563568 -0.15879571437835693 0.0006165493978187442 0.005206416826695204 0.0014043623814359307 -0.13608615100383759 -0.1684207320213318 -0.1623237431049347 -0.14588242769241333 -0.01822245866060257 0.047440048307180405 0.03939065337181091 -0.1088552176952362 0.17462047934532166 -0.06860823929309845 -0.04360374063253403 -0.04805659502744675 0.16071386635303497 -0.12944111227989197 0.04004145786166191 -0.046035684645175934 0.10793039202690125 -0.0001712637022137642 0.14608794450759888 -0.09566791355609894 -0.08981069177389145 -0.142491415143013 -0.12707768380641937 -0.10882095992565155 -0.10590948164463043 0.08217233419418335 -0.06631331145763397 0.09227688610553741 0.1271461844444275 0.044734083116054535 0.09950421750545502 0.08398772776126862 0.08117899298667908 -0.12241929769515991 -0.11817196011543274 -0.12628985941410065 -0.004110328853130341 0.13848383724689484 -0.09340722858905792 -0.10724534094333649 -0.14577966928482056 0.1125202625989914 -0.14283393323421478 -0.018633492290973663 0.07491074502468109 -0.15787088871002197 -0.1536235511302948 0.05024877190589905 0.12142597138881683 0.14625920355319977 0.07494499534368515 0.11043084412813187 -0.10782763361930847 -0.12574182450771332 0.1363944262266159 -0.09577067196369171 0.06285378336906433 0.02154497615993023 0.0614151693880558 -0.039664674550294876 0.00688480120152235 -0.057099319994449615 -0.03880835697054863
aa849a41-f4a0-4cd9-a7b8-9ba88966e8eb -0.16152679920196533 0.09425236284732819 0.04526974633336067 0.09650051593780518 0.12521564960479736 0.009094825014472008 0.028442617505788803 -0.15478233993053436 -0.034676145762205124 0.10975103825330734 -0.06100685894489288 0.14367780089378357 -0.04090967774391174 -0.13148324191570282 -0.08846164494752884 0.1675219088792801 0.11380453407764435 -0.13441264629364014 0.16455842554569244 -0.14282621443271637 -0.1625487059354782 0.08440814912319183 -0.02214095927774906 -0.08028652518987656 -0.012875819578766823 -0.0860772356390953 0.08171717822551727 0.13066571950912476 0.14234933257102966 -0.1502860188484192 -0.07238391041755676 0.000476882210932672 -0.03184891864657402 0.13008664548397064 0.07568801194429398 0.15427137911319733 -0.10525471717119217 0.058043379336595535 0.14636877179145813 -0.062437504529953 0.09994088113307953 0.043634720146656036 -0.15335167944431305 0.143234983086586 0.16040273010730743 -0.09929368644952774 -0.008992635644972324 -0.05463707447052002 0.08355657756328583 -0.13158543407917023 0.11891398578882217 -0.032155487686395645 -0.0416250042617321 -0.06972698867321014 -0.1501156985759735 -0.10402844101190567 -0.038389015942811966 0.15699642896652222 -0.08621348440647125 -0.15825676918029785 0.013727394863963127 0.020948754623532295 0.10372187197208405 0.0026569149922579527 0.118471160531044 0.10116714984178543 -0.044963181018829346 -0.021936582401394844 0.0269779060035944 0.043123774230480194 0.11397484689950943 0.13659268617630005 -0.08556628972291946 -0.0859750434756279 -0.05576115474104881 -0.09145919233560562 0.04247657582163811 -0.1301547735929489 -0.07766366750001907 -0.16919098794460297 0.0751430094242096 0.1490597426891327 -0.07517707347869873 -0.15502077341079712 0.10103090107440948 0.05402394011616707 -0.08652005344629288 -0.021391572430729866 -0.04206782206892967 -0.004360065795481205 -0.061279360204935074 0.0010900164488703012 -0.09363922476768494 0.12777036428451538 0.130427286028862 0.11128386855125427 -0.05034513399004936 0.009333265945315361 0.028067924082279205 -0.09159544855356216
cc3b3a44-a08d-4498-bccd-a62b3638d4d8 0.07792498916387558 -0.17290782928466797 0.14814311265945435 0.015071206726133823 -0.0618261992931366 -0.07145122438669205 -0.023052096366882324 -0.10121685266494751 -0.1475265622138977 -0.09731204062700272 0.1452658772468567 -0.05983954295516014 -0.09402377903461456 0.07919234037399292 -0.05970253050327301 0.16455017030239105 -0.051516126841306686 -0.15684331953525543 0.09261941909790039 -0.0006850548088550568 -0.11991885304450989 0.03596537932753563 0.04990624636411667 -0.019832337275147438 0.06062735244631767 -0.13608615100383759 0.03024516999721527 0.06316205859184265 -0.1042310893535614 0.005685955286026001 -0.002500450238585472 -0.08220658451318741 -0.09693525731563568 -0.15879571437835693 0.0006165493978187442 0.005206416826695204 0.0014043623814359307 -0.13608615100383759 -0.1684207320213318 -0.1623237431049347 -0.14588242769241333 -0.01822245866060257 0.047440048307180405 0.03939065337181091 -0.1088552176952362 0.17462047934532166 -0.06860823929309845 -0.04360374063253403 -0.04805659502744675 0.16071386635303497 -0.12944111227989197 0.04004145786166191 -0.046035684645175934 0.10793039202690125 -0.0001712637022137642 0.14608794450759888 -0.09566791355609894 -0.08981069177389145 -0.142491415143013 -0.12707768380641937 -0.10882095992565155 -0.10590948164463043 0.08217233419418335 -0.06631331145763397 0.09227688610553741 0.1271461844444275 0.044734083116054535 0.09950421750545502 0.08398772776126862 0.08117899298667908 -0.12241929769515991 -0.11817196011543274 -0.12628985941410065 -0.004110328853130341 0.13848383724689484 -0.09340722858905792 -0.10724534094333649 -0.14577966928482056 0.1125202625989914 -0.14283393323421478 -0.018633492290973663 0.07491074502468109 -0.15787088871002197 -0.1536235511302948 0.05024877190589905 0.12142597138881683 0.14625920355319977 0.07494499534368515 0.11043084412813187 -0.10782763361930847 -0.12574182450771332 0.1363944262266159 -0.09577067196369171 0.06285378336906433 0.02154497615993023 0.0614151693880558 -0.039664674550294876 0.00688480120152235 -0.057099319994449615 -0.03880835697054863
af62666a-7c63-416e-a5b9-ff298f9f4cbb -0.16152679920196533 0.09425236284732819 0.04526974633336067 0.09650051593780518 0.12521564960479736 0.009094825014472008 0.028442617505788803 -0.15478233993053436 -0.034676145762205124 0.10975103825330734 -0.06100685894489288 0.14367780089378357 -0.04090967774391174 -0.13148324191570282 -0.08846164494752884 0.1675219088792801 0.11380453407764435 -0.13441264629364014 0.16455842554569244 -0.14282621443271637 -0.1625487059354782 0.08440814912319183 -0.02214095927774906 -0.08028652518987656 -0.012875819578766823 -0.0860772356390953 0.08171717822551727 0.13066571950912476 0.14234933257102966 -0.1502860188484192 -0.07238391041755676 0.000476882210932672 -0.03184891864657402 0.13008664548397064 0.07568801194429398 0.15427137911319733 -0.10525471717119217 0.058043379336595535 0.14636877179145813 -0.062437504529953 0.09994088113307953 0.043634720146656036 -0.15335167944431305 0.143234983086586 0.16040273010730743 -0.09929368644952774 -0.008992635644972324 -0.05463707447052002 0.08355657756328583 -0.13158543407917023 0.11891398578882217 -0.032155487686395645 -0.0416250042617321 -0.06972698867321014 -0.1501156985759735 -0.10402844101190567 -0.038389015942811966 0.15699642896652222 -0.08621348440647125 -0.15825676918029785 0.013727394863963127 0.020948754623532295 0.10372187197208405 0.0026569149922579527 0.118471160531044 0.10116714984178543 -0.044963181018829346 -0.021936582401394844 0.0269779060035944 0.043123774230480194 0.11397484689950943 0.13659268617630005 -0.08556628972291946 -0.0859750434756279 -0.05576115474104881 -0.09145919233560562 0.04247657582163811 -0.1301547735929489 -0.07766366750001907 -0.16919098794460297 0.0751430094242096 0.1490597426891327 -0.07517707347869873 -0.15502077341079712 0.10103090107440948 0.05402394011616707 -0.08652005344629288 -0.021391572430729866 -0.04206782206892967 -0.004360065795481205 -0.061279360204935074 0.0010900164488703012 -0.09363922476768494 0.12777036428451538 0.130427286028862 0.11128386855125427 -0.05034513399004936 0.009333265945315361 0.028067924082279205 -0.09159544855356216
425ce76e-3dc8-46ea-8cc8-b512fa57dae5 -0.16152679920196533 0.09425236284732819 0.04526974633336067 0.09650051593780518 0.12521564960479736 0.009094825014472008 0.028442617505788803 -0.15478233993053436 -0.034676145762205124 0.10975103825330734 -0.06100685894489288 0.14367780089378357 -0.04090967774391174 -0.13148324191570282 -0.08846164494752884 0.1675219088792801 0.11380453407764435 -0.13441264629364014 0.16455842554569244 -0.14282621443271637 -0.1625487059354782 0.08440814912319183 -0.02214095927774906 -0.08028652518987656 -0.012875819578766823 -0.0860772356390953 0.08171717822551727 0.13066571950912476 0.14234933257102966 -0.1502860188484192 -0.07238391041755676 0.000476882210932672 -0.03184891864657402 0.13008664548397064 0.07568801194429398 0.15427137911319733 -0.10525471717119217 0.058043379336595535 0.14636877179145813 -0.062437504529953 0.09994088113307953 0.043634720146656036 -0.15335167944431305 0.143234983086586 0.16040273010730743 -0.09929368644952774 -0.008992635644972324 -0.05463707447052002 0.08355657756328583 -0.13158543407917023 0.11891398578882217 -0.032155487686395645 -0.0416250042617321 -0.06972698867321014 -0.1501156985759735 -0.10402844101190567 -0.038389015942811966 0.15699642896652222 -0.08621348440647125 -0.15825676918029785 0.013727394863963127 0.020948754623532295 0.10372187197208405 0.0026569149922579527 0.118471160531044 0.10116714984178543 -0.044963181018829346 -0.021936582401394844 0.0269779060035944 0.043123774230480194 0.11397484689950943 0.13659268617630005 -0.08556628972291946 -0.0859750434756279 -0.05576115474104881 -0.09145919233560562 0.04247657582163811 -0.1301547735929489 -0.07766366750001907 -0.16919098794460297 0.0751430094242096 0.1490597426891327 -0.07517707347869873 -0.15502077341079712 0.10103090107440948 0.05402394011616707 -0.08652005344629288 -0.021391572430729866 -0.04206782206892967 -0.004360065795481205 -0.061279360204935074 0.0010900164488703012 -0.09363922476768494 0.12777036428451538 0.130427286028862 0.11128386855125427 -0.05034513399004936 0.009333265945315361 0.028067924082279205 -0.09159544855356216
4edec7e3-e7ce-4aab-ae13-a28644a1f3a5 -0.16152679920196533 0.09425236284732819 0.04526974633336067 0.09650051593780518 0.12521564960479736 0.009094825014472008 0.028442617505788803 -0.15478233993053436 -0.034676145762205124 0.10975103825330734 -0.06100685894489288 0.14367780089378357 -0.04090967774391174 -0.13148324191570282 -0.08846164494752884 0.1675219088792801 0.11380453407764435 -0.13441264629364014 0.16455842554569244 -0.14282621443271637 -0.1625487059354782 0.08440814912319183 -0.02214095927774906 -0.08028652518987656 -0.012875819578766823 -0.0860772356390953 0.08171717822551727 0.13066571950912476 0.14234933257102966 -0.1502860188484192 -0.07238391041755676 0.000476882210932672 -0.03184891864657402 0.13008664548397064 0.07568801194429398 0.15427137911319733 -0.10525471717119217 0.058043379336595535 0.14636877179145813 -0.062437504529953 0.09994088113307953 0.043634720146656036 -0.15335167944431305 0.143234983086586 0.16040273010730743 -0.09929368644952774 -0.008992635644972324 -0.05463707447052002 0.08355657756328583 -0.13158543407917023 0.11891398578882217 -0.032155487686395645 -0.0416250042617321 -0.06972698867321014 -0.1501156985759735 -0.10402844101190567 -0.038389015942811966 0.15699642896652222 -0.08621348440647125 -0.15825676918029785 0.013727394863963127 0.020948754623532295 0.10372187197208405 0.0026569149922579527 0.118471160531044 0.10116714984178543 -0.044963181018829346 -0.021936582401394844 0.0269779060035944 0.043123774230480194 0.11397484689950943 0.13659268617630005 -0.08556628972291946 -0.0859750434756279 -0.05576115474104881 -0.09145919233560562 0.04247657582163811 -0.1301547735929489 -0.07766366750001907 -0.16919098794460297 0.0751430094242096 0.1490597426891327 -0.07517707347869873 -0.15502077341079712 0.10103090107440948 0.05402394011616707 -0.08652005344629288 -0.021391572430729866 -0.04206782206892967 -0.004360065795481205 -0.061279360204935074 0.0010900164488703012 -0.09363922476768494 0.12777036428451538 0.130427286028862 0.11128386855125427 -0.05034513399004936 0.009333265945315361 0.028067924082279205 -0.09159544855356216
52f713b1-2511-4f69-a427-4842ee504e31 0.07792498916387558 -0.17290782928466797 0.14814311265945435 0.015071206726133823 -0.0618261992931366 -0.07145122438669205 -0.023052096366882324 -0.10121685266494751 -0.1475265622138977 -0.09731204062700272 0.1452658772468567 -0.05983954295516014 -0.09402377903461456 0.07919234037399292 -0.05970253050327301 0.16455017030239105 -0.051516126841306686 -0.15684331953525543 0.09261941909790039 -0.0006850548088550568 -0.11991885304450989 0.03596537932753563 0.04990624636411667 -0.019832337275147438 0.06062735244631767 -0.13608615100383759 0.03024516999721527 0.06316205859184265 -0.1042310893535614 0.005685955286026001 -0.002500450238585472 -0.08220658451318741 -0.09693525731563568 -0.15879571437835693 0.0006165493978187442 0.005206416826695204 0.0014043623814359307 -0.13608615100383759 -0.1684207320213318 -0.1623237431049347 -0.14588242769241333 -0.01822245866060257 0.047440048307180405 0.03939065337181091 -0.1088552176952362 0.17462047934532166 -0.06860823929309845 -0.04360374063253403 -0.04805659502744675 0.16071386635303497 -0.12944111227989197 0.04004145786166191 -0.046035684645175934 0.10793039202690125 -0.0001712637022137642 0.14608794450759888 -0.09566791355609894 -0.08981069177389145 -0.142491415143013 -0.12707768380641937 -0.10882095992565155 -0.10590948164463043 0.08217233419418335 -0.06631331145763397 0.09227688610553741 0.1271461844444275 0.044734083116054535 0.09950421750545502 0.08398772776126862 0.08117899298667908 -0.12241929769515991 -0.11817196011543274 -0.12628985941410065 -0.004110328853130341 0.13848383724689484 -0.09340722858905792 -0.10724534094333649 -0.14577966928482056 0.1125202625989914 -0.14283393323421478 -0.018633492290973663 0.07491074502468109 -0.15787088871002197 -0.1536235511302948 0.05024877190589905 0.12142597138881683 0.14625920355319977 0.07494499534368515 0.11043084412813187 -0.10782763361930847 -0.12574182450771332 0.1363944262266159 -0.09577067196369171 0.06285378336906433 0.02154497615993023 0.0614151693880558 -0.039664674550294876 0.00688480120152235 -0.057099319994449615 -0.03880835697054863
a242d96f-8148-403b-bfb0-8b5551219eeb -0.04471761733293533 0.10902707278728485 -0.04403574764728546 0.06585073471069336 0.12598715722560883 0.0708836242556572 -0.05836307257413864 -0.028461836278438568 -0.06394414603710175 0.02887961082160473 -0.008467627689242363 0.11172159016132355 -0.09163118153810501 -0.11308690905570984 -0.022265423089265823 0.08794987201690674 0.13733646273612976 -0.029154084622859955 0.034212298691272736 -0.07181791961193085 -0.06631394475698471 0.00012132525444030762 0.04563827067613602 -0.0882805734872818 0.08071966469287872 -0.031017489731311798 -0.03813236951828003 0.07207384705543518 0.06293763965368271 -0.05902097001671791 0.017436709254980087 0.002227295422926545 -0.02035978063941002 0.07099228352308273 -0.010874122381210327 0.07247155904769897 0.00464460626244545 0.09028895944356918 0.10792773216962814 -0.11867553740739822 0.053631339222192764 -0.024383898824453354 -0.011923670768737793 0.14698275923728943 0.13766694068908691 -0.022313298657536507 0.017557084560394287 -0.057767368853092194 -0.0007796734571456909 -0.10018405318260193 -0.009149681776762009 -0.0112376119941473 -0.006468110717833042 -0.010504430159926414 -0.037516023963689804 -0.1210256963968277 0.03573659062385559 0.053822342306375504 -0.11787358671426773 -0.009377680718898773 -0.04320966824889183 -0.0032187961041927338 -0.020917050540447235 0.08419152349233627 0.025319453328847885 -0.032420288771390915 0.04577307403087616 0.017122074961662292 0.07567144930362701 0.044759318232536316 0.12207399308681488 0.07545974105596542 0.022162627428770065 0.03362736478447914 0.0025858543813228607 -0.055867474526166916 0.042358867824077606 0.003934092819690704 -0.09369252622127533 -0.09468057006597519 0.059044092893600464 0.11068125814199448 -0.02773226797580719 -0.012423813343048096 0.07526172697544098 0.08479434996843338 -0.10188722610473633 -0.045597538352012634 0.012671010568737984 0.07946860045194626 -0.002197304740548134 0.012284528464078903 -0.12774662673473358 -0.012641705572605133 0.14101891219615936 0.09837590157985687 -0.07756920158863068 -0.024268556386232376 -0.05376308783888817 -0.10597376525402069
cf85d6a3-f8b0-49f2-9dcb-aacb7a18a9d3 -0.16152679920196533 0.09425236284732819 0.04526974633336067 0.09650051593780518 0.12521564960479736 0.009094825014472008 0.028442617505788803 -0.15478233993053436 -0.034676145762205124 0.10975103825330734 -0.06100685894489288 0.14367780089378357 -0.04090967774391174 -0.13148324191570282 -0.08846164494752884 0.1675219088792801 0.11380453407764435 -0.13441264629364014 0.16455842554569244 -0.14282621443271637 -0.1625487059354782 0.08440814912319183 -0.02214095927774906 -0.08028652518987656 -0.012875819578766823 -0.0860772356390953 0.08171717822551727 0.13066571950912476 0.14234933257102966 -0.1502860188484192 -0.07238391041755676 0.000476882210932672 -0.03184891864657402 0.13008664548397064 0.07568801194429398 0.15427137911319733 -0.10525471717119217 0.058043379336595535 0.14636877179145813 -0.062437504529953 0.09994088113307953 0.043634720146656036 -0.15335167944431305 0.143234983086586 0.16040273010730743 -0.09929368644952774 -0.008992635644972324 -0.05463707447052002 0.08355657756328583 -0.13158543407917023 0.11891398578882217 -0.032155487686395645 -0.0416250042617321 -0.06972698867321014 -0.1501156985759735 -0.10402844101190567 -0.038389015942811966 0.15699642896652222 -0.08621348440647125 -0.15825676918029785 0.013727394863963127 0.020948754623532295 0.10372187197208405 0.0026569149922579527 0.118471160531044 0.10116714984178543 -0.044963181018829346 -0.021936582401394844 0.0269779060035944 0.043123774230480194 0.11397484689950943 0.13659268617630005 -0.08556628972291946 -0.0859750434756279 -0.05576115474104881 -0.09145919233560562 0.04247657582163811 -0.1301547735929489 -0.07766366750001907 -0.16919098794460297 0.0751430094242096 0.1490597426891327 -0.07517707347869873 -0.15502077341079712 0.10103090107440948 0.05402394011616707 -0.08652005344629288 -0.021391572430729866 -0.04206782206892967 -0.004360065795481205 -0.061279360204935074 0.0010900164488703012 -0.09363922476768494 0.12777036428451538 0.130427286028862 0.11128386855125427 -0.05034513399004936 0.009333265945315361 0.028067924082279205 -0.09159544855356216
3a63c761-e06d-4e9a-bd56-5094e2fb716e -0.020367728546261787 0.06859611719846725 -0.06801380962133408 0.029965003952383995 0.13523755967617035 0.05561491474509239 -0.06084393337368965 -0.03180994093418121 -0.05081596598029137 0.05341536924242973 -0.032118964940309525 0.09756896644830704 -0.008276130072772503 -0.03449014201760292 0.0032508980948477983 0.023445047438144684 0.13487809896469116 0.0038260221481323242 0.01231943815946579 -0.0066391825675964355 -0.023752795532345772 0.0037488441448658705 0.04402224346995354 -0.09992635250091553 0.011923457495868206 0.011204521171748638 -0.002101292135193944 0.048125606030225754 0.009913817048072815 -0.07440429925918579 -0.009476050734519958 0.038499537855386734 -0.04405754804611206 0.06585252285003662 -0.02901182882487774 0.016344184055924416 0.022210463881492615 0.054239753633737564 0.10918556898832321 -0.030251378193497658 0.016721827909350395 0.03544231876730919 -0.029219934716820717 0.11149928718805313 0.05909665301442146 0.034137070178985596 -0.005348867271095514 -0.08570192009210587 0.006514174398034811 -0.0860690101981163 0.031595196574926376 -0.021986166015267372 0.04250812903046608 -0.027869394049048424 0.023839188739657402 -0.04300389811396599 -0.025280622765421867 0.02003285102546215 -0.12906576693058014 -0.053509458899497986 0.022106556221842766 -0.03930168226361275 0.015893304720520973 0.09822595119476318 0.06335466355085373 -0.0012830942869186401 -0.02175230346620083 -0.004408193286508322 0.04429401084780693 -0.011164315044879913 0.12993164360523224 0.0850767120718956 -0.007853522896766663 0.07114069908857346 0.04756612703204155 0.0008933742647059262 0.0271226167678833 0.03901894390583038 -0.052980486303567886 -0.0883350595831871 0.01665562205016613 0.10113871842622757 0.019287491217255592 -0.04462410509586334 0.02033405192196369 0.10026687383651733 -0.031754013150930405 0.010339818894863129 -0.04089564457535744 0.07847931236028671 0.04595525935292244 0.057987313717603683 -0.054385989904403687 0.041534487158060074 0.1263679713010788 0.03703782334923744 -0.03139379620552063 -0.014634049497544765 -0.05736305192112923 -0.03597155213356018
e28e87a3-b1cf-4e41-879d-0da69a0ff627 0.02163144014775753 0.04118996486067772 -0.017337189987301826 0.03129180148243904 0.05855723097920418 0.04109705612063408 -0.09213896840810776 -0.045747216790914536 -0.045375924557447433 0.07030030339956284 -0.027209298685193062 0.11755073070526123 -0.11372140794992447 -0.026800036430358887 -0.007386933546513319 0.061767447739839554 0.12198745459318161 0.019175155088305473 -0.013722759671509266 -0.011617596261203289 -0.02873348630964756 -0.013790315948426723 0.06640826910734177 -0.05372655764222145 0.10324843972921371 -0.018441716209053993 -0.04423748329281807 0.08625814318656921 0.0026466299314051867 -0.04463815316557884 0.05835599824786186 0.05608418956398964 -0.06011870875954628 0.06346654891967773 0.03925776481628418 0.0546259731054306 0.032051507383584976 0.09098199009895325 0.1269971877336502 -0.08992663025856018 0.023797735571861267 0.0188407301902771 -0.06537795066833496 0.11111827939748764 0.09606895595788956 0.03657640144228935 -0.030868299305438995 -0.03929413482546806 0.050939593464136124 -0.05022389069199562 0.023830078542232513 0.00750777730718255 0.011648724786937237 0.005029585212469101 -0.022626779973506927 -0.041033029556274414 0.06735198944807053 0.06897198408842087 -0.10116732120513916 -0.03853433206677437 -0.06585078686475754 -0.015203051269054413 -0.04174572601914406 0.00878638494759798 -0.005037034396082163 0.01941661536693573 0.06051682308316231 -0.04336242750287056 0.026009364053606987 0.07646703720092773 0.07766764611005783 0.09182802587747574 0.00017863139510154724 0.019662803038954735 -0.027400486171245575 -0.017954738810658455 -0.01921267807483673 0.03551293537020683 -0.08962952345609665 -0.031494107097387314 0.004178993403911591 0.04800928756594658 0.028219902887940407 0.021538875997066498 0.07392672449350357 0.07383301854133606 -0.034197259694337845 -0.03557409718632698 0.05400955304503441 0.09569969773292542 0.03781259059906006 0.05851415917277336 -0.11222859472036362 -0.05117150768637657 0.056491464376449585 0.069125697016716 -0.04142691567540169 0.029070377349853516 -0.0722481831908226 -0.034284237772226334
