6 100
6 -0.06284241378307343 -0.01929868757724762 0.02300337329506874 0.05578070133924484 0.039241768419742584 0.014964696951210499 -0.03161299228668213 -0.032686520367860794 -0.08177783340215683 0.046179354190826416 0.0634930431842804 0.03650753200054169 -0.03266514465212822 -0.04017573595046997 -0.03427336364984512 0.12030811607837677 0.06252306699752808 -0.008208878338336945 0.09248890727758408 0.023713992908596992 -0.05672961473464966 0.058302294462919235 0.07461820542812347 -0.020198896527290344 0.06360143423080444 -0.03930352255702019 0.021788451820611954 0.028701474890112877 0.001633001142181456 -0.01766752451658249 0.0032682730816304684 -0.040128350257873535 -0.029784878715872765 0.021947255358099937 -0.04125670716166496 -0.01149733830243349 -0.010575476102530956 0.003129753516986966 -0.008196155540645123 -0.06940503418445587 -0.03948228433728218 -0.009571130387485027 0.013785344548523426 0.047515470534563065 0.076067253947258 0.004057575017213821 0.01829512044787407 -0.02268538996577263 0.0031425952911376953 0.0033424138091504574 -0.044472623616456985 0.007870281115174294 -0.02942347154021263 0.05000152438879013 -0.007980294525623322 -0.03646636754274368 0.01294650323688984 0.00430747726932168 -0.03587539494037628 -0.04559509456157684 -0.01589878275990486 -0.04406144469976425 0.0146449264138937 0.03830799460411072 0.02837808057665825 0.0033110559452325106 0.08559982478618622 0.024007871747016907 0.09376867115497589 0.06420817226171494 0.0031402483582496643 0.005787649191915989 0.02062230184674263 0.0060783373191952705 0.02018616534769535 -0.04573558643460274 -0.06531963497400284 -0.019301097840070724 -0.009301366284489632 -0.06278993934392929 0.03875047713518143 0.08922505378723145 -0.05836794525384903 -0.03514590114355087 0.0872136577963829 0.1142067164182663 0.026895325630903244 -0.015076170675456524 0.05212172120809555 -0.01024394016712904 -0.03511336073279381 0.05269979313015938 -0.0802750438451767 0.00245091924443841 0.08616086095571518 0.019774535670876503 -0.032310597598552704 -0.012521788477897644 -0.07129357010126114 -0.03796931728720665
21 -0.04082486405968666 0.0036154277622699738 -0.0008990578353404999 0.061174504458904266 0.06915856897830963 0.032251931726932526 -0.06074577197432518 -0.010796450078487396 -0.08254136890172958 0.01744338870048523 0.04322078451514244 0.07932087779045105 -0.04824262112379074 -0.031074797734618187 -0.04413504898548126 0.12479908019304276 0.03692004084587097 -0.0271681509912014 0.08061431348323822 0.0028652034234255552 -0.0689464807510376 0.03480084612965584 0.07169436663389206 -0.06558898836374283 0.09400935471057892 -0.08952082693576813 -0.00959916040301323 0.04801894351840019 0.03965028002858162 -0.06320758163928986 -0.003547079861164093 -0.03247058391571045 -0.031121760606765747 0.03369656950235367 -0.018786359578371048 -0.0021955356933176517 -0.009441424161195755 0.04583519697189331 0.019671855494379997 -0.076520174741745 -0.04134604334831238 -0.02719471976161003 0.010288475081324577 0.06461875885725021 0.07001705467700958 -0.007231800816953182 0.01820605993270874 -0.05913317948579788 0.013500679284334183 0.01632011868059635 -0.05206812173128128 0.033049941062927246 -0.01125284843146801 0.06078312546014786 -0.04688667505979538 -0.03395138680934906 0.016361812129616737 0.040568359196186066 -0.07640349864959717 -0.044060442596673965 -0.045127686113119125 -0.03457903116941452 0.02592156082391739 0.04708516225218773 0.004645109176635742 0.004870578646659851 0.06928013265132904 0.0363319031894207 0.09934229403734207 0.08142592757940292 0.03712676465511322 -0.02893647737801075 0.016792550683021545 0.03337117284536362 -0.0003618551418185234 -0.021900378167629242 -0.04460209608078003 -0.051933228969573975 0.017575599253177643 -0.05595604330301285 0.018418941646814346 0.08357980847358704 -0.07878848165273666 -0.08241783082485199 0.0676896795630455 0.10825508832931519 0.018601069226861 0.01816820353269577 0.04567543417215347 0.028820272535085678 -0.03294934704899788 0.053009383380413055 -0.10869097709655762 0.016039617359638214 0.08270213752985 0.06392686069011688 -0.028382282704114914 -0.004488648846745491 -0.07502634078264236 -0.07359226793050766
22 -0.1522974818944931 -0.0342070646584034 -0.06381867080926895 0.09656941890716553 0.08728141337633133 0.05834941938519478 -0.10032346844673157 0.11469236761331558 -0.052071113139390945 0.10948202013969421 0.04304200038313866 0.15459521114826202 0.08194161206483841 0.023139121010899544 -0.07372156530618668 0.16071172058582306 -0.07194162905216217 0.10779917985200882 0.16126187145709991 0.15828454494476318 -0.02323620766401291 0.1055014431476593 0.14627808332443237 -0.07012933492660522 0.15216803550720215 -0.16064698994159698 0.0077022528275847435 -0.013754023239016533 0.13576030731201172 -0.1395466923713684 -0.047087304294109344 -0.051909301429986954 0.013462761417031288 0.15368907153606415 -0.05355978384613991 -0.15925540030002594 -0.04783163592219353 0.1375078707933426 0.033851079642772675 0.09398043155670166 -0.12398038804531097 -0.04142387956380844 0.017896411940455437 -0.07595457136631012 0.11372149735689163 -0.15556609630584717 0.10595452040433884 -0.07741087675094604 0.10394804924726486 0.10352733731269836 -0.061067864298820496 0.11482182145118713 0.013559848070144653 0.1543363332748413 -0.11398039758205414 -0.04025883600115776 0.0903882086277008 0.14352728426456451 0.07359211891889572 -0.031941693276166916 0.015825217589735985 -0.024983778595924377 0.06177983433008194 0.08414226025342941 -0.1241745576262474 -0.04271838068962097 0.13873763382434845 0.009676359593868256 0.16093824803829193 0.15598680078983307 0.026407724246382713 -0.14919070899486542 0.1479932963848114 0.0706147775053978 -0.14880235493183136 0.118252232670784 -0.15792854130268097 -0.07135910540819168 0.1440127044916153 0.10919076204299927 -0.02359219640493393 0.03857598826289177 -0.101359061896801 -0.15113244950771332 0.0706147775053978 0.1424916833639145 0.1314237415790558 0.09074418991804123 0.048834871500730515 0.0634303167462349 -0.0020711941178888083 0.05103551596403122 -0.0838833600282669 0.028899628669023514 0.029061442241072655 -0.0022977308835834265 0.08203870058059692 0.02378636971116066 -0.1341421753168106 -0.04391578584909439
31 -0.04082486405968666 0.0036154277622699738 -0.0008990578353404999 0.061174504458904266 0.06915856897830963 0.032251931726932526 -0.06074577197432518 -0.010796450078487396 -0.08254136890172958 0.01744338870048523 0.04322078451514244 0.07932087779045105 -0.04824262112379074 -0.031074797734618187 -0.04413504898548126 0.12479908019304276 0.03692004084587097 -0.0271681509912014 0.08061431348323822 0.0028652034234255552 -0.0689464807510376 0.03480084612965584 0.07169436663389206 -0.06558898836374283 0.09400935471057892 -0.08952082693576813 -0.00959916040301323 0.04801894351840019 0.03965028002858162 -0.06320758163928986 -0.003547079861164093 -0.03247058391571045 -0.031121760606765747 0.03369656950235367 -0.018786359578371048 -0.0021955356933176517 -0.009441424161195755 0.04583519697189331 0.019671855494379997 -0.076520174741745 -0.04134604334831238 -0.02719471976161003 0.010288475081324577 0.06461875885725021 0.07001705467700958 -0.007231800816953182 0.01820605993270874 -0.05913317948579788 0.013500679284334183 0.01632011868059635 -0.05206812173128128 0.033049941062927246 -0.01125284843146801 0.06078312546014786 -0.04688667505979538 -0.03395138680934906 0.016361812129616737 0.040568359196186066 -0.07640349864959717 -0.044060442596673965 -0.045127686113119125 -0.03457903116941452 0.02592156082391739 0.04708516225218773 0.004645109176635742 0.004870578646659851 0.06928013265132904 0.0363319031894207 0.09934229403734207 0.08142592757940292 0.03712676465511322 -0.02893647737801075 0.016792550683021545 0.03337117284536362 -0.0003618551418185234 -0.021900378167629242 -0.04460209608078003 -0.051933228969573975 0.017575599253177643 -0.05595604330301285 0.018418941646814346 0.08357980847358704 -0.07878848165273666 -0.08241783082485199 0.0676896795630455 0.10825508832931519 0.018601069226861 0.01816820353269577 0.04567543417215347 0.028820272535085678 -0.03294934704899788 0.053009383380413055 -0.10869097709655762 0.016039617359638214 0.08270213752985 0.06392686069011688 -0.028382282704114914 -0.004488648846745491 -0.07502634078264236 -0.07359226793050766
36 -0.04082486405968666 0.0036154277622699738 -0.0008990578353404999 0.061174504458904266 0.06915856897830963 0.032251931726932526 -0.06074577197432518 -0.010796450078487396 -0.08254136890172958 0.01744338870048523 0.04322078451514244 0.07932087779045105 -0.04824262112379074 -0.031074797734618187 -0.04413504898548126 0.12479908019304276 0.03692004084587097 -0.0271681509912014 0.08061431348323822 0.0028652034234255552 -0.0689464807510376 0.03480084612965584 0.07169436663389206 -0.06558898836374283 0.09400935471057892 -0.08952082693576813 -0.00959916040301323 0.04801894351840019 0.03965028002858162 -0.06320758163928986 -0.003547079861164093 -0.03247058391571045 -0.031121760606765747 0.03369656950235367 -0.018786359578371048 -0.0021955356933176517 -0.009441424161195755 0.04583519697189331 0.019671855494379997 -0.076520174741745 -0.04134604334831238 -0.02719471976161003 0.010288475081324577 0.06461875885725021 0.07001705467700958 -0.007231800816953182 0.01820605993270874 -0.05913317948579788 0.013500679284334183 0.01632011868059635 -0.05206812173128128 0.033049941062927246 -0.01125284843146801 0.06078312546014786 -0.04688667505979538 -0.03395138680934906 0.016361812129616737 0.040568359196186066 -0.07640349864959717 -0.044060442596673965 -0.045127686113119125 -0.03457903116941452 0.02592156082391739 0.04708516225218773 0.004645109176635742 0.004870578646659851 0.06928013265132904 0.0363319031894207 0.09934229403734207 0.08142592757940292 0.03712676465511322 -0.02893647737801075 0.016792550683021545 0.03337117284536362 -0.0003618551418185234 -0.021900378167629242 -0.04460209608078003 -0.051933228969573975 0.017575599253177643 -0.05595604330301285 0.018418941646814346 0.08357980847358704 -0.07878848165273666 -0.08241783082485199 0.0676896795630455 0.10825508832931519 0.018601069226861 0.01816820353269577 0.04567543417215347 0.028820272535085678 -0.03294934704899788 0.053009383380413055 -0.10869097709655762 0.016039617359638214 0.08270213752985 0.06392686069011688 -0.028382282704114914 -0.004488648846745491 -0.07502634078264236 -0.07359226793050766
a242d96f-8148-403b-bfb0-8b5551219eeb -0.04458959400653839 0.10924924910068512 -0.043865688145160675 0.0658351257443428 0.12606734037399292 0.07104036957025528 -0.05850600078701973 -0.02862107753753662 -0.0641273483633995 0.028783654794096947 -0.008404862135648727 0.1116892546415329 -0.09152693301439285 -0.11344209313392639 -0.0221957229077816 0.08768769353628159 0.13732722401618958 -0.029561489820480347 0.03403425216674805 -0.07214320451021194 -0.06645899266004562 0.00011830776929855347 0.045527856796979904 -0.08786698430776596 0.08066379278898239 -0.030861690640449524 -0.038153424859046936 0.0717640221118927 0.06300708651542664 -0.05907629057765007 0.017495285719633102 0.002142250770702958 -0.020405590534210205 0.071023128926754 -0.01118713989853859 0.07261357456445694 0.004861526191234589 0.09036146104335785 0.10748732835054398 -0.11864738911390305 0.05346359685063362 -0.024299660697579384 -0.012218736112117767 0.14691615104675293 0.13772597908973694 -0.022366894409060478 0.017911698669195175 -0.05771930515766144 -0.0009023137390613556 -0.10026657581329346 -0.009071823209524155 -0.011215358972549438 -0.006398211233317852 -0.01025739498436451 -0.03748606517910957 -0.12097877264022827 0.03585881367325783 0.05403352901339531 -0.1177348792552948 -0.009282536804676056 -0.043323926627635956 -0.0032622171565890312 -0.020947042852640152 0.08410727977752686 0.025431238114833832 -0.03216147795319557 0.045944008976221085 0.017233310267329216 0.07576660066843033 0.04472406208515167 0.12192846834659576 0.07557819038629532 0.022284526377916336 0.03369797766208649 0.002855077385902405 -0.056003402918577194 0.042221106588840485 0.003749832510948181 -0.09353363513946533 -0.09486216306686401 0.05856043100357056 0.1105145588517189 -0.02772585302591324 -0.012480877339839935 0.07533299922943115 0.08483127504587173 -0.10161228477954865 -0.0458269864320755 0.012723702937364578 0.07955221831798553 -0.0024584773927927017 0.012353106401860714 -0.1280367523431778 -0.012424230575561523 0.14103282988071442 0.09831459820270538 -0.07751955837011337 -0.024282164871692657 -0.05407659336924553 -0.1059052124619484
